been 0.001581552205607295 0.007802475709468126 0.013968552462756634 -0.0011762937065213919 -0.010890611447393894 -0.0033345487900078297 -0.0013326273765414953 0.001683376613073051 -0.0014387270202860236 -0.007444242015480995 -0.008492637425661087 0.0032239328138530254 -0.009944264777004719 0.0019875650759786367 -0.008214490488171577 -0.0037002055905759335 -0.001732462435029447 0.006545789074152708 -0.013648389838635921 0.007738564629107714 9.718319051899016E-4 0.0030574786942452192 0.004335577134042978 -9.900255827233195E-4 0.0034907471854239702 0.006676479708403349 0.0067316945642232895 0.0025421949103474617 -0.007636933587491512 0.009954606182873249 1.0306641343049705E-4 -0.0070947203785181046 0.006551268510520458 -0.007439614739269018 -0.005187880247831345 0.008387562818825245 0.001198042999021709 -0.004617082886397839 -0.022515540942549706 -0.01038307324051857 -1.9510950369294733E-4 -0.00256637716665864 -0.0023197573609650135 0.0064719743095338345 -0.002932838164269924 0.008732938207685947 -0.0012192147551104426 -0.015084453858435154 -0.006349533796310425 -0.00584384985268116 0.0018669270211830735 0.010075579397380352 0.007163416128605604 0.002767934463918209 -0.005966573022305965 0.004399876110255718 0.0037914186250418425 0.008653052151203156 -0.0055900500155985355 -0.011746474541723728 0.0015656540635973215 0.007201486732810736 -0.017558610066771507 0.017988698557019234 -0.0011570710921660066 0.012102807871997356 0.010994384996592999 0.007623692043125629 -0.004943711683154106 -0.008853784762322903 -4.1137452353723347E-4 -0.012507745996117592 0.0030353586189448833 0.0031826600898057222 -0.00855549331754446 -0.002413345267996192 0.006271600257605314 0.008653409779071808 -0.0011204569600522518 -0.004306767601519823 -0.015139473602175713 -0.005866043735295534 -0.006013291422277689 0.0010713214287534356 0.005209260620176792 -0.005229187663644552 -0.003011279972270131 0.00491718715056777 0.004977056290954351 0.0022534537129104137 0.0039611575193703175 9.921796154230833E-4 -0.017898259684443474 0.02145855687558651 0.01488278154283762 0.00920406449586153 -0.008934594690799713 0.01698848232626915 0.0026431584265083075 0.0038130790926516056 -0.014865951612591743 0.004323883913457394 0.005208089482039213 -0.0013693571090698242 -0.01963096670806408 -0.012549352832138538 0.007670770864933729 4.943253588862717E-4 -0.023688901215791702 0.00246865744702518 -0.005878189112991095 0.013246247544884682 0.005512039642781019 -0.01043857540935278 -0.016299163922667503 -0.006056650076061487 -0.003140785498544574 -0.0036930260248482227 0.007035217713564634 -0.006619276013225317 -0.004520366434007883 -0.003282440360635519 -0.009901702404022217 -0.007842430844902992 -0.012461057864129543 0.009252898395061493 -0.0044298069551587105 -0.012324844487011433 -0.014717832207679749 0.0030143095646053553 -0.008933305740356445 0.0012345644645392895 0.0077527668327093124 0.009750603698194027 -0.00831351988017559 0.0049867392517626286 -0.021229196339845657 -0.0036658772733062506 -0.01436541322618723 0.0018410044722259045 0.004727089777588844 -0.00984964333474636 8.079395047388971E-4 -0.00997444149106741 -0.024969235062599182 4.398020973894745E-5 0.004988167900592089 0.0028033051639795303 0.002006008755415678 0.007665477227419615
thought 0.0023208712227642536 0.001020199153572321 0.002820538356900215 4.730852961074561E-4 -0.005665495526045561 0.0031566659454256296 0.0015411749482154846 -0.0042646899819374084 -0.001638548681512475 -0.005039091221988201 -0.0030152953695505857 0.0034219673834741116 -0.0014888027217239141 -0.0031894538551568985 -2.6708986843004823E-4 -0.001958496170118451 -9.748354787006974E-4 -0.0011033759219571948 -0.0017435203772038221 -0.0011675495188683271 -0.0020755166187882423 -0.0011663015466183424 0.0026118471287190914 -0.0021059175487607718 2.3304652131628245E-4 0.00219048117287457 0.003957018256187439 0.0035991664044559 2.8641961398534477E-4 -5.8354169595986605E-5 0.002326391404494643 -0.0038565308786928654 -0.0017717295559123158 -0.0036526957992464304 0.0031170439906418324 -0.0021354882046580315 8.041034452617168E-4 0.0012056033592671156 -0.007676931098103523 -0.00408880366012454 8.973082003649324E-6 6.866348558105528E-4 -0.003918780013918877 0.003568874206393957 -0.0031149175483733416 0.001228695036843419 -0.0010859491303563118 -0.006111828610301018 -2.7652166318148375E-4 -0.003244397696107626 -0.0018998384475708008 0.0016599721275269985 -4.4737246935255826E-4 0.002310182200744748 7.735784165561199E-4 -6.37854216620326E-4 0.0017892904579639435 7.008311804383993E-4 -0.0016042093047872186 -0.005931621417403221 -7.422344060614705E-5 0.002065614564344287 -0.0017214182298630476 0.007201939821243286 9.619359625503421E-4 0.0018859973642975092 0.0011178808053955436 0.0038165063597261906 -0.0025295927189290524 0.0011621266603469849 -0.0012644182424992323 -0.0015530044911429286 2.2282599820755422E-4 -0.0017146664904430509 -0.0018426391761749983 -0.0019637206569314003 0.005294278264045715 0.004248712211847305 0.001199246384203434 3.163423971273005E-4 -9.605110390111804E-4 3.6292808363214135E-4 -0.0046963137574493885 -0.001951379468664527 0.0019313459051772952 2.895010984502733E-4 0.0019048714311793447 8.896081708371639E-4 0.0036107993219047785 0.0016632387414574623 -3.253772738389671E-4 -9.577680611982942E-4 -0.0058775306679308414 0.006365847773849964 0.0018554346170276403 -0.0017781062051653862 1.2352406338322908E-4 0.007818755693733692 -0.0019527440890669823 -0.0028565095271915197 -0.0019443276105448604 0.0050419229082763195 -7.044872036203742E-4 -0.0021163909696042538 -0.0037028826773166656 -0.0013260176638141274 0.0015839134575799108 -0.0031350464560091496 -0.006734705064445734 -5.762873333878815E-4 3.803299623541534E-4 0.003674351377412677 0.004160859622061253 3.665020049083978E-4 -0.004020973574370146 3.923788317479193E-4 4.226814489811659E-4 0.0015921926824375987 0.0015492335660383105 9.068023646250367E-4 0.001590357394888997 -0.0032108949963003397 -9.953055996447802E-4 0.0011348372790962458 -0.00507162231951952 0.0042173611000180244 -0.0024110025260597467 -0.006434557493776083 -0.005968819372355938 -0.002367604523897171 0.0014598254347220063 -6.647396949119866E-4 0.0021277358755469322 7.336194394156337E-4 -0.0022128596901893616 0.002607774455100298 -0.00786746758967638 -0.001886924495920539 -0.0030945767648518085 0.002580949803814292 0.0043715424835681915 -0.006420684978365898 0.0020222337916493416 -0.002862888388335705 -0.009796712547540665 0.0019247295567765832 0.0035532715264707804 0.0023140856064856052 -0.001386375050060451 0.0031039598397910595
about 0.00422951253131032 0.014660960994660854 0.021845074370503426 -0.001541547360830009 -0.00924319215118885 -0.004480547271668911 0.002441342920064926 -0.004338907077908516 -0.007157177664339542 -0.012861962430179119 -0.011163693852722645 0.006941591389477253 -0.01955225132405758 0.0011540846899151802 -0.007640997413545847 -0.005775861442089081 -0.003053185762837529 0.007351205684244633 -0.016049005091190338 0.00420342618599534 -0.0027079591527581215 0.0012073685647919774 0.008433051407337189 -0.002631871961057186 0.003313441062346101 0.004511674400418997 0.016066977754235268 0.0015519788721576333 -0.006362138781696558 0.01481084618717432 0.006204527337104082 -0.010055270045995712 0.005932953674346209 -0.009532134979963303 -0.00934559479355812 0.008194781839847565 -0.0021354134660214186 -0.007631422020494938 -0.03723942115902901 -0.015726840123534203 0.0017558122053742409 2.728406398091465E-4 -0.006861676927655935 0.011952143162488937 -0.002229859586805105 0.010227147489786148 -0.0033703267108649015 -0.019771449267864227 -0.003602723591029644 -0.0062693883664906025 0.003708258969709277 0.016492463648319244 0.0067210146225988865 0.006480858661234379 -0.004455330315977335 0.008749851025640965 0.004486821126192808 0.008404867723584175 -0.011932569555938244 -0.016883520409464836 0.00588657520711422 0.011235678568482399 -0.023824213072657585 0.033435627818107605 -0.003084133844822645 0.022261831909418106 0.010734525509178638 0.012351597659289837 -0.008182423189282417 -0.01552162691950798 -0.0033440329134464264 -0.013320375233888626 -1.5350172179751098E-4 0.005138453096151352 -0.011779643595218658 -0.00208765990100801 0.01026928424835205 0.010886767879128456 0.004584347363561392 -0.004875795915722847 -0.020900817587971687 -0.0049235522747039795 -0.010750990360975266 -5.219519371166825E-4 0.011896797455847263 -0.0013069132110103965 -0.005223465617746115 0.0011101745767518878 0.003029915038496256 -0.0024584622588008642 0.0021604951471090317 2.3400063219014555E-4 -0.025858789682388306 0.027829434722661972 0.01736205816268921 0.008139189332723618 -0.01761879213154316 0.03035949543118477 -0.0011013795156031847 0.010249616578221321 -0.021601589396595955 0.010295934975147247 0.0058749946765601635 4.46768754045479E-5 -0.030460156500339508 -0.017116179689764977 0.0074297343380749226 -0.0035778183955699205 -0.03283635526895523 0.005440176464617252 -0.009332175366580486 0.018291009590029716 0.012084790505468845 -0.011069887317717075 -0.019268499687314034 -0.005982242990285158 -0.004871660377830267 -0.006638740189373493 0.006561735179275274 -0.008584211580455303 -0.004128342494368553 -0.009439888410270214 -0.013804423622786999 -0.010662582702934742 -0.010809578001499176 0.014448380097746849 -0.00583266094326973 -0.014983640052378178 -0.020764192566275597 0.006997851654887199 -0.011934622190892696 0.002427654806524515 0.010204452089965343 0.010719592683017254 -0.017468366771936417 8.897615480236709E-4 -0.03224126249551773 -0.004791651852428913 -0.02834271267056465 0.008434736169874668 0.009128511883318424 -0.011339543387293816 0.0024466083850711584 -0.022109154611825943 -0.03327060490846634 -0.007477058097720146 0.004487961996346712 0.004151072818785906 3.261351666878909E-4 0.01386132463812828
ship 0.015580691397190094 0.04680924117565155 0.051195207983255386 0.02496059238910675 -0.0426790788769722 0.005407532677054405 0.006760506425052881 -0.015467368066310883 -0.006211246829479933 -0.025016391649842262 -0.0526033416390419 0.00585331954061985 -0.05115257203578949 0.0015067367348819971 -0.025744091719388962 0.0011602083686739206 0.006610139738768339 -0.001624708529561758 -0.044894009828567505 0.02178097330033779 -0.021095747128129005 0.021186038851737976 0.04335314407944679 -0.022431308403611183 0.018911300227046013 0.010798939503729343 0.027041776105761528 0.02077021263539791 -0.029812036082148552 0.03222597390413284 0.004716030787676573 -0.01341779250651598 0.007533431053161621 -0.027627339586615562 0.008132305927574635 0.010063139721751213 -0.011999882757663727 -0.013276825658977032 -0.08948922157287598 -0.02964029833674431 7.912938599474728E-4 -0.0012157674646005034 -0.015602082014083862 0.03523096442222595 -0.006737039424479008 0.03948274999856949 -0.010580690577626228 -0.06791777163743973 0.004468107130378485 -0.006064188666641712 0.013747933320701122 0.03323770686984062 0.00755472294986248 0.012362712062895298 -0.013773960992693901 0.009002299048006535 0.02680068276822567 0.027032265439629555 -0.013885747641324997 -0.037838928401470184 0.021225018426775932 0.019215259701013565 -0.03678668662905693 0.08053530007600784 -0.011494046077132225 0.05495130270719528 0.02806941792368889 0.049760229885578156 -0.01123394351452589 -0.027821706607937813 0.0054006739519536495 -0.025010423734784126 -6.915777339600027E-4 0.016424888744950294 -0.02949308417737484 -0.003570659551769495 0.025097103789448738 0.03082258068025112 0.004838787484914064 -0.0010500018252059817 -0.04024319350719452 -0.027886077761650085 -0.02590358257293701 0.003795132739469409 0.035993266850709915 -0.012284379452466965 -0.007279748562723398 0.0059804124757647514 0.0199467521160841 0.008148793131113052 9.794748621061444E-4 0.005677006207406521 -0.0579826645553112 0.06381126493215561 0.034980665892362595 0.01600337028503418 -0.03002920001745224 0.06309857219457626 0.008396643213927746 0.0060188667848706245 -0.05662216246128082 0.023823034018278122 0.01430202554911375 1.252886140719056E-4 -0.08674579113721848 -0.03856953606009483 0.016613269224762917 -0.014415326528251171 -0.07408911734819412 0.01650719903409481 -0.030383169651031494 0.047635018825531006 0.035839129239320755 -0.03648897260427475 -0.04111481085419655 0.008549503050744534 -0.024098515510559082 -0.004011522512882948 0.02020120434463024 -0.01880730502307415 0.009663733653724194 -0.011746608652174473 -0.04815259575843811 -0.0013404838973656297 -0.03517031669616699 0.03791263699531555 -0.006093263626098633 -0.04701806232333183 -0.05182311311364174 0.010300301015377045 -0.01930342987179756 -0.002232939237728715 0.02657192572951317 0.03238021954894066 -0.05740378051996231 0.008416619151830673 -0.06076417490839958 -0.023485057055950165 -0.0677076205611229 0.033714234828948975 0.029016053304076195 -0.049969132989645004 0.02107992395758629 -0.04771703854203224 -0.08487686514854431 -0.00818904209882021 0.035316552966833115 -0.005685172043740749 0.009891504421830177 0.028895435854792595
stood 0.0017086364096030593 0.009653912857174873 0.01201791875064373 0.0020594503730535507 -0.00940078403800726 0.0030096617992967367 0.003825502935796976 2.8311696951277554E-4 -0.0027846330776810646 -0.00388634973205626 -0.008301286026835442 0.0048299869522452354 -0.00664485665038228 2.1927729540038854E-4 -0.0020434092730283737 5.934024811722338E-4 0.003558848751708865 -0.0019212178885936737 -0.007358243688941002 0.004598679021000862 -7.873369031585753E-4 0.002294516656547785 0.004842069931328297 -0.0015281205996870995 1.4548162289429456E-4 -0.001007252954877913 0.0072669233195483685 0.00399052444845438 -0.0017820920329540968 0.006800967268645763 0.001433148980140686 -0.0055517288856208324 -0.001520891790278256 -0.005162952467799187 2.942137361969799E-4 0.003590273903682828 -0.0031406432390213013 -0.005789594259113073 -0.013278491795063019 -0.008043213747441769 1.9475020235404372E-4 -2.0713855337817222E-4 -0.003517119912430644 0.0065670134499669075 5.037483642809093E-4 0.007186361122876406 -0.0029662104789167643 -0.01056197751313448 -0.001377989538013935 -0.005427391733974218 0.003633463755249977 0.003569346386939287 0.0037600428331643343 0.003907506354153156 -0.0033443414140492678 0.0025510448031127453 0.004182153847068548 0.0056422073394060135 -0.001596743706613779 -0.009230680763721466 0.004136336036026478 4.384884377941489E-4 -0.008699455298483372 0.01080980896949768 -9.884273167699575E-4 0.010325891897082329 0.008018202148377895 0.007139056455343962 -0.0015134423738345504 -0.004360639955848455 -0.001277770265005529 -0.006562844850122929 -0.0011833884054794908 -1.9165895355399698E-4 -0.005630752071738243 -3.7367051118053496E-4 0.0069252015091478825 0.0027358438819646835 0.003522492479532957 -0.0027103545144200325 -0.009893389418721199 -0.0051279631443321705 -0.006895140279084444 -0.002646225970238447 0.00397430220618844 0.0011601534206420183 -0.002333163982257247 0.0024010050110518932 0.005267520435154438 -0.0017765320371836424 0.004319603089243174 0.0019354005344212055 -0.011428821831941605 0.011549408547580242 0.009888307191431522 0.0024891947396099567 -0.006495534908026457 0.009275918826460838 0.0023926710709929466 -6.908521754667163E-4 -0.009389372542500496 0.005374100059270859 8.017004583962262E-4 -0.0017166320467367768 -0.017235754057765007 -0.00370250316336751 7.881259080022573E-4 0.0017278393497690558 -0.011054084636271 0.0040436843410134315 -0.003376197535544634 0.006346433889120817 0.006303056608885527 -0.004448995925486088 -0.009116671979427338 -1.8024820019491017E-4 -0.004227138124406338 1.9978311320301145E-4 0.006926767993718386 -0.006165873724967241 8.095558150671422E-4 -0.0024925621692091227 -0.00457750353962183 0.0018258104100823402 -0.008832881227135658 0.00992352981120348 -0.0053943004459142685 -0.010419953614473343 -0.010152289643883705 0.0015140862669795752 -0.001989097101613879 0.0012459208955988288 0.006566324736922979 0.007215979043394327 -0.006578985136002302 0.003333145985379815 -0.010543798096477985 -0.004659065045416355 -0.012578359805047512 0.005008269101381302 0.005798880010843277 -0.007518542930483818 0.0061378274112939835 -0.009444698691368103 -0.01264889631420374 -8.953773649409413E-4 0.0027055342216044664 -0.0016893609426915646 0.00488419970497489 0.003097925102338195
your 0.0027800684329122305 0.0021339785307645798 0.005902133882045746 0.0033456895034760237 -0.0027363968547433615 9.894882095977664E-4 -0.0013659800169989467 -0.00296493130736053 -0.0015674412716180086 0.0019310078350827098 -0.003574554342776537 0.001976003171876073 -0.0031486377120018005 -0.0016767610795795918 -0.0033205398358404636 0.0014277377631515265 -8.479710668325424E-4 0.0026504951529204845 -0.002370476955547929 -1.5420059207826853E-4 2.1305707923602313E-4 -0.0027097463607788086 0.0034115933813154697 -0.004049465525895357 7.148731383495033E-4 -0.001954907551407814 2.0307979139033705E-4 0.0013705631718039513 -0.001552912057377398 0.0014064161805436015 0.0015256960177794099 7.113391766324639E-4 0.003523603780195117 -0.0033162825275212526 -0.0032801583874970675 5.080385599285364E-4 0.001388945383951068 -0.0010809925151988864 -0.005627853330224752 -0.0023775931913405657 0.0021665506064891815 -3.6050810012966394E-4 -0.002353215590119362 -0.0016856753500178456 -5.140441935509443E-4 4.8552657244727015E-4 -2.315773454029113E-4 -1.8963965703733265E-4 0.0012528112856671214 0.0017919059609994292 9.93685214780271E-4 0.0027141168247908354 -0.0010927690891548991 -2.680454927030951E-4 4.414266732055694E-4 -0.0014708670787513256 -0.001389152486808598 0.002417037496343255 -0.0026801845524460077 -0.003183136461302638 2.446089929435402E-4 -0.0019897196907550097 -0.0024000564590096474 0.006649825721979141 0.0022185815032571554 0.0014304453507065773 0.0037993239238858223 0.003139635780826211 0.0019444185309112072 -0.0028654749039560556 -0.0016199307283386588 -0.0029314260464161634 -0.0012568306410685182 0.00373454624786973 -0.00405081594362855 0.0024420213885605335 0.002791703911498189 0.0032491888850927353 -0.003055538283661008 -0.003352370113134384 -0.003935634158551693 7.242521387524903E-4 7.397982408292592E-4 7.880582707002759E-4 0.0046763913705945015 -0.003148882882669568 2.796501503325999E-4 -0.002668605651706457 -9.982706978917122E-4 -0.0012475219555199146 -6.933037075214088E-4 -0.0014423037646338344 -0.004350393079221249 0.0010825978824868798 0.003988218028098345 0.004148875828832388 -0.001717074541375041 2.8658591327257454E-4 -0.002319321734830737 0.00306099490262568 -5.697795422747731E-4 -0.0023311786353588104 0.004485921934247017 -0.001598690520040691 -0.004558092448860407 -7.8533252235502E-4 0.001118688378483057 -0.0020219734869897366 -0.0038978797383606434 -6.964237545616925E-4 -0.0030330310110002756 -0.0012060184963047504 0.0028246967121958733 -0.004038121085613966 -0.0045298077166080475 3.9252135320566595E-4 8.281873306259513E-4 -0.002917807549238205 -0.0021548429504036903 0.002020949264988303 0.0024610827676951885 8.9168461272493E-4 3.7158484337851405E-4 3.90725617762655E-5 -0.003862248733639717 0.001314518740400672 0.0023455461487174034 -0.005261681973934174 -0.002547250594943762 1.352609251625836E-4 -0.00228472170419991 6.055936682969332E-4 9.498903527855873E-4 0.0011183678871020675 -0.001932135783135891 7.405781652778387E-4 -0.00400785356760025 -0.002033713273704052 -0.005122645292431116 2.6712831459008157E-4 0.003840441582724452 -0.004801809787750244 0.0016463150968775153 -0.0040686349384486675 -0.0015700184740126133 -7.960877846926451E-4 0.0028027647640556097 0.00115514628123492 -0.0026266584172844887 0.0030871799681335688
johnson 0.0034053020644932985 0.009262374602258205 0.010506676509976387 0.003366329940035939 -0.007182797882705927 -0.002958399709314108 0.002693591173738241 -6.318538216874003E-4 3.6836176877841353E-4 -0.0019815354607999325 -0.0037529105320572853 -0.0018814867362380028 -0.007969383150339127 -4.2598447180353105E-4 -0.005553082562983036 5.181417800486088E-4 -0.0011647880310192704 -1.1528718459885567E-4 -0.00838396418839693 0.0018586384830996394 -0.005431781522929668 0.0029204045422375202 0.0066294074058532715 -0.002691670088097453 0.002471416722983122 0.0022512737195938826 0.007138158194720745 0.00264691817574203 -0.004735748749226332 0.003832724178209901 -0.0022550758440047503 5.690993275493383E-4 -0.0015353272901847959 -3.9554794784635305E-4 0.0017155344830825925 -8.272264385595918E-4 -0.0026186241302639246 4.7462788643315434E-4 -0.014941769652068615 -0.002597406506538391 0.0015713083557784557 5.116962711326778E-4 -0.0033605126664042473 0.005591404624283314 -0.0015906600747257471 0.006954386364668608 -0.0019741009455174208 -0.008143890649080276 -0.003530394984409213 -0.0014516199007630348 0.0010697190882638097 0.005084128584712744 -0.0013303403975442052 3.697604697663337E-4 -0.001673585269600153 0.0027998764999210835 7.902614306658506E-4 0.003212594659999013 -0.0014523635618388653 -0.005979554727673531 0.005819676443934441 5.4656295105814934E-5 -0.0031520389020442963 0.012803222984075546 -0.003851443761959672 0.005947645287960768 0.0024509052745997906 0.0032393657602369785 -0.003711789147928357 -0.006219809874892235 -8.058820967562497E-4 -0.0050926548428833485 0.0031016406137496233 -9.678266942501068E-4 -0.0018846376333385706 0.001597683411091566 0.003490747883915901 0.00219057803042233 0.0036637401208281517 -4.6820187708362937E-4 -0.00670479005202651 -5.970527417957783E-4 -0.004568885546177626 6.78648182656616E-4 0.0011723145144060254 -0.003537614829838276 -6.835859967395663E-4 7.794694975018501E-4 7.673563086427748E-4 -2.4317484349012375E-4 -8.5444311844185E-4 -0.0018512934911996126 -0.008680267259478569 0.0069910576567053795 0.006645604968070984 0.0033669867552816868 -4.5870503527112305E-4 0.0061868941411376 -2.93233257252723E-4 4.1744820191524923E-4 -0.0059907035902142525 0.004156886599957943 0.0013108302373439074 -5.423614638857543E-4 -0.008270704187452793 -0.0019483491778373718 5.569903296418488E-4 0.0013766350457444787 -0.012330486439168453 0.005212593823671341 -0.0013020248152315617 0.009089460596442223 0.0042950729839503765 -0.006637063343077898 -0.008256062865257263 0.0026252614334225655 -0.0019277179380878806 6.260778172872961E-4 0.0038177852984517813 -0.005229880101978779 0.0035040192306041718 -0.001594935660250485 -0.006363656371831894 0.0025352351367473602 -0.007610222324728966 0.007794185075908899 -0.0010682097636163235 -0.008091267198324203 -0.007619799114763737 0.00337973958812654 -0.0038468458224087954 -0.0034048743546009064 0.0011036588111892343 0.0033797849901020527 -0.010444674640893936 0.0017712266417220235 -0.009069235064089298 -0.004973196890205145 -0.010302952490746975 0.0055743055418133736 0.0061141070909798145 -0.007766634225845337 0.003660986665636301 -0.006875574588775635 -0.010383169166743755 -0.001325193210504949 0.0025127981789410114 -5.50929362361785E-5 -0.001561369514092803 0.006310679018497467
cruiser 0.0039821467362344265 0.006719759199768305 0.00870995782315731 0.002129316097125411 -0.0061441571451723576 -4.309828727855347E-5 -0.001557729090563953 -9.24645341001451E-4 6.004645838402212E-4 4.9793641665019095E-5 -0.002599300816655159 -0.0022008896339684725 -0.004868207033723593 -0.0022033536806702614 -5.079168477095664E-4 -0.0020066569559276104 4.941439838148654E-4 -0.0022884360514581203 -0.0069996812380850315 0.002398229204118252 -0.003769844537600875 0.0014079002430662513 0.008098909631371498 -0.0033901408314704895 0.0015216423198580742 -7.578321965411305E-4 0.0017219427973031998 -7.037557661533356E-4 -0.0055170184932649136 9.235995239578187E-4 0.004128954838961363 9.05684195458889E-4 0.0031121254432946444 -0.0023319604806602 0.0011752443388104439 -1.1773125879699364E-4 -0.004937876481562853 -0.0026898207142949104 -0.011609580367803574 -0.004550062119960785 -0.0014480258105322719 0.0015016355318948627 -0.004717815667390823 0.005209089256823063 -0.0010644049616530538 0.0062779649160802364 0.0012931698001921177 -0.00800775084644556 0.0013310500653460622 -0.004109780769795179 0.002926798537373543 0.0032549009192734957 1.2932265235576779E-5 0.0015276623889803886 -0.0015267045237123966 -5.379900685511529E-4 1.8072928651235998E-4 0.002677811775356531 2.892336342483759E-4 -0.005996611900627613 0.00491177337244153 0.0038388667162507772 -0.0024001123383641243 0.009160026907920837 -0.002996934810653329 0.008314566686749458 7.978906505741179E-4 0.0032405643723905087 0.0013994062319397926 -0.0038164856377989054 2.9303465271368623E-4 -0.0059633683413267136 -7.401854381896555E-4 0.002825941890478134 -0.0023671553935855627 8.440456003881991E-4 2.619636070448905E-4 3.0711080762557685E-4 0.0021067894995212555 -7.036294555291533E-4 -0.004965291358530521 -0.002029158640652895 -0.0013394835405051708 -0.001428197487257421 0.0016106781549751759 -0.0033959299325942993 0.0021982959005981684 -0.0013334363466128707 0.0014145545428618789 0.003961933311074972 8.162268786691129E-4 -0.0022844441700726748 -0.00955779105424881 0.005530014168471098 0.002095345873385668 0.0026434778701514006 -0.005072527099400759 0.0050072926096618176 5.424845148809254E-4 -2.2561251535080373E-4 -0.009441941045224667 0.0030833829659968615 -2.297911123605445E-4 1.3427724479697645E-4 -0.013037125580012798 -0.002908926922827959 0.0020607453770935535 -0.0039963130839169025 -0.009452872909605503 0.004244095645844936 -0.0014851009473204613 0.003480928484350443 0.005353167187422514 -0.004527201876044273 -0.0038614815566688776 -0.0016227809246629477 -9.887686464935541E-4 -0.0010209819301962852 0.003203227184712887 -0.0025448400992900133 0.0020006366539746523 -6.529614911414683E-4 -0.006215279456228018 0.0011323028011247516 -0.0021051052026450634 0.005596482194960117 -0.002730431267991662 -0.007870710454881191 -0.007681047078222036 -0.0010238818358629942 1.4156705583445728E-4 -0.001688798307441175 0.005978090222924948 0.006240257062017918 -0.0070590609684586525 -7.58335052523762E-4 -0.009540832601487637 -4.78869624203071E-4 -0.005572918336838484 0.005919469986110926 0.006241386756300926 -0.0032005091197788715 -0.0010545594850555062 -0.008563745766878128 -0.011412965133786201 0.001808888977393508 0.0020557392854243517 -2.2921474737813696E-5 0.004032419994473457 0.005435190163552761
without -0.0010503409430384636 0.005509620066732168 0.008222576230764389 1.259314303752035E-4 -0.0025547381956130266 -6.155077717266977E-4 0.0031815513502806425 -0.0013341051526367664 -0.0036970744840800762 -0.006686870940029621 -0.002548089250922203 0.003709342796355486 -0.003723649773746729 -0.0019669197499752045 -0.002852464560419321 0.0013498668558895588 0.0017123210709542036 0.004108216613531113 -0.006175711750984192 0.0034745116718113422 -0.004326843190938234 -0.001230082125402987 0.005655963439494371 -0.0016726762987673283 -0.0014262973563745618 0.0020271828398108482 0.006132632959634066 0.0034980892669409513 -0.004199876915663481 0.002352694980800152 0.001401686342433095 -0.0012547391233965755 0.003945070784538984 3.537181328283623E-5 -0.0029765956569463015 0.002213606843724847 4.0748558240011334E-4 8.663595654070377E-4 -0.011915680952370167 -0.007605629041790962 0.002445894293487072 -0.001846115104854107 -0.0017826973926275969 0.004487361293286085 -0.002977352822199464 0.003113113809376955 -0.001201719045639038 -0.008216788992285728 6.627512047998607E-4 -2.0540277182590216E-4 0.002298469888046384 0.005316666793078184 -9.505708585493267E-4 5.104396259412169E-4 4.5637882431037724E-4 0.0018248516134917736 -8.208819053834304E-5 0.00475081754848361 -0.002461486728861928 -0.005591595079749823 -7.952578016556799E-4 0.005977259483188391 -0.008154528215527534 0.00807560607790947 -0.003488783724606037 0.005150981713086367 0.004862301517277956 0.005841027945280075 3.823458100669086E-4 -9.657391929067671E-4 -0.002649199217557907 -0.003906399942934513 0.002468774328008294 0.0013191052712500095 -0.0012866408796980977 -2.433457993902266E-4 -5.349260754883289E-5 0.006558849010616541 -1.5771508333273232E-4 0.001714065088890493 -0.00613744230940938 -6.470615335274488E-5 -0.006073691416531801 -5.704577779397368E-4 0.004320396576076746 -0.001265688450075686 0.0011197117855772376 0.004170636646449566 -6.550535326823592E-4 -2.0966371812392026E-4 0.003851235145702958 8.49841395393014E-4 -0.0063584246672689915 0.005413582548499107 0.006440355442464352 0.0017182992305606604 -0.005282044876366854 0.010844538919627666 0.0016380536835640669 0.0050119673833251 -0.0062993960455060005 0.0019345192704349756 0.0024804158601909876 -6.883803871460259E-4 -0.012400925159454346 -0.005776141304522753 0.0023297008592635393 -5.266405642032623E-4 -0.006900212727487087 -0.0011691688559949398 2.2774467652197927E-4 0.007690667174756527 0.006368722300976515 -0.004093254916369915 -0.008200254291296005 -0.0024006436578929424 4.930841969326138E-4 -0.001695400569587946 8.298325701616704E-4 -0.0029815142042934895 0.0018126636277884245 7.129760924726725E-4 -0.002706288592889905 -0.0019905033987015486 -0.004863556008785963 0.00255836034193635 -0.004310989752411842 -0.0027779589872807264 -0.008352250792086124 -9.518953156657517E-4 -0.003035552566871047 -2.458350791130215E-4 0.0038249637000262737 0.001879255985841155 -0.009055434726178646 0.0031536316964775324 -0.005051296669989824 -0.0021757930517196655 -0.007140631787478924 0.006043483503162861 0.0058221700601279736 -0.004555072635412216 0.004398754332214594 -0.004732728935778141 -0.00951667595654726 0.0014632238307967782 0.0023952799383550882 5.522195133380592E-4 0.0025722465943545103 0.0068787336349487305
these -0.0016614486230537295 0.0021374099887907505 0.003481191350147128 -0.0010722773149609566 -0.0022490685805678368 -0.0029861205257475376 -0.0014104994479566813 -0.002694980474188924 -0.0027733228635042906 -0.0016359221190214157 -0.004680164158344269 -0.0018603814532980323 -0.0037514292635023594 0.0016294987872242928 0.0014101923443377018 0.001375475199893117 0.002509807236492634 0.0014875262277200818 -0.002137471456080675 -0.0014901653630658984 0.001957843080163002 9.981982875615358E-4 0.0035227423068135977 0.002103702398017049 -7.4047374073416E-4 2.3146157036535442E-4 -0.0012251213192939758 0.0015889706555753946 -0.0025657147634774446 -0.0016880228649824858 0.002057128818705678 -8.218364091590047E-4 0.003411120967939496 -0.0024185357615351677 -0.001592680811882019 0.002178112743422389 8.08886019513011E-4 -0.0023544318974018097 -0.006735890172421932 -0.0013747155899181962 -0.002789729740470648 0.001042817602865398 8.870706660673022E-4 0.004021558444947004 0.0013652810594066978 0.002289864467456937 -0.004253043327480555 -0.0027943497989326715 -0.002549503929913044 -0.002765372395515442 0.003383426461368799 8.435999043285847E-4 2.115793904522434E-4 -3.223779785912484E-4 0.0014867280842736363 2.2512709256261587E-4 0.004478975664824247 -4.135399649385363E-4 -0.0043533737771213055 6.837227265350521E-4 0.002757767681032419 0.0016883066855370998 -5.487495218403637E-4 0.006251144222915173 0.001856544055044651 0.00477882893756032 0.001016157795675099 0.0023682224564254284 5.731364944949746E-4 -0.0031349891796708107 2.7878882247023284E-4 -0.004450706765055656 -0.0031293064821511507 -0.00222913920879364 -0.0013805706985294819 0.0013638418167829514 -0.00165753869805485 0.003231095615774393 -0.0026572556234896183 -0.002014636993408203 -0.0022393809631466866 -0.0021770864259451628 -0.004260392393916845 -9.129263344220817E-4 0.001284960424527526 -9.932582033798099E-4 -0.0031728653702884912 0.002753188833594322 0.00393685745075345 -0.002545660361647606 0.0022259028628468513 2.5478380848653615E-4 -0.001288314932025969 0.0028073317371308804 0.00433267280459404 -0.0015788853634148836 -0.0034979823976755142 0.0016808072105050087 -0.0022435279097408056 6.113095150794834E-5 -0.0034268819727003574 0.003697232808917761 0.003080457914620638 -0.001072671147994697 -0.0013723417650908232 -0.003969909623265266 0.0026214169338345528 0.0014247356448322535 -0.0019387046340852976 -3.210976137779653E-4 -0.00453818729147315 0.001798591809347272 0.0029482562094926834 -0.0015473720850422978 -0.00563100166618824 0.0011874005431309342 -3.1263852724805474E-4 -0.0035018152557313442 0.004397434648126364 -0.003883754601702094 -0.00111070042476058 5.422836693469435E-6 -0.0033805174753069878 -4.6981661580502987E-4 -0.0029964763671159744 0.005172627046704292 -0.003715441096574068 -0.005316316150128841 3.901761374436319E-4 -6.909246440045536E-4 -3.073037078138441E-4 0.0013958403142169118 0.002972343238070607 -5.478786188177764E-4 -0.004303891211748123 -0.001975047867745161 -0.005026518367230892 -0.0025058172177523375 -6.188307888805866E-4 0.0027637637685984373 -7.976204506121576E-4 -3.960604954045266E-4 0.0012704184046015143 -0.003001634730026126 -0.006525346543639898 -0.0022598253563046455 0.001902980380691588 0.0024462672881782055 -0.0010035255691036582 0.0031401643063873053
would 0.005349399987608194 0.01119648851454258 0.012382110580801964 -0.003005851525813341 -0.008229547180235386 0.001222445396706462 -0.0030543648172169924 9.879086865112185E-4 -0.0016853837296366692 -0.006988199893385172 -0.009791296906769276 5.969523335807025E-4 -0.00852999184280634 -0.0015344423009082675 -0.006835842039436102 -0.0070005785673856735 -0.0018645788077265024 0.0036431760527193546 -0.012035192921757698 0.004643065854907036 8.190826629288495E-4 0.0036667436361312866 0.004050978925079107 6.597016472369432E-4 0.00437982426956296 0.002423239406198263 0.009930194355547428 0.0025803286116570234 -0.006094967480748892 0.007959512993693352 -5.684020579792559E-4 -0.0033837035298347473 0.003044258104637265 -0.004882050212472677 -0.005138312000781298 0.005800607148557901 -0.003092043334618211 -0.0034324552398175 -0.015160092152655125 -0.011709807440638542 -0.0010463008657097816 8.34815320558846E-4 -0.007605737540870905 0.0022060186602175236 -0.0023971388582140207 0.0058102416805922985 -0.001377970795147121 -0.011008110828697681 -0.0014563685981556773 -6.181191420182586E-4 -0.0014416020130738616 0.0031357198022305965 0.005996943451464176 0.0017193866660818458 -0.003382737748324871 0.005013542715460062 -5.920116673223674E-4 0.0032700086012482643 -0.005136702209711075 -0.012190700508654118 7.102550443960354E-5 0.006429971661418676 -0.012018735520541668 0.015185486525297165 0.002060080412775278 0.007994761690497398 0.0077695101499557495 0.006162297911942005 -0.006741647142916918 -0.005513970740139484 0.0018376866355538368 -0.005883074831217527 -2.2974394960328937E-4 -3.658679488580674E-4 -0.0036629405803978443 -0.005292017012834549 4.2995717376470566E-4 0.0018284297548234463 0.0023048161529004574 -0.00448255380615592 -0.005784348584711552 -0.0026046037673950195 -0.006746082566678524 -0.0026129509788006544 0.004516341723501682 -2.9742400511167943E-4 1.3596519420389086E-4 0.003073893254622817 0.0023507194127887487 0.002641149563714862 0.004398520104587078 0.0022907215170562267 -0.013153268955647945 0.011578662320971489 0.008939973078668118 0.004543100483715534 -0.005042079370468855 0.012254100292921066 0.0017610153881832957 0.0024663025978952646 -0.012209820561110973 0.006057098042219877 0.007106497883796692 1.936263870447874E-4 -0.01483900099992752 -0.007542192470282316 0.004319265950471163 -0.003167219227179885 -0.01196768693625927 0.004923931322991848 -0.003419677261263132 0.011350266635417938 0.007423536852002144 -0.0048932465724647045 -0.006437929347157478 -0.003544948296621442 -0.0044653331860899925 0.0010551208397373557 0.007051520049571991 -0.004717191681265831 -0.004101037513464689 -0.002892205026000738 -0.003663299372419715 -0.0018768530571833253 -0.005018204916268587 0.006041080690920353 -0.003960154019296169 -0.006445055361837149 -0.010749317705631256 5.494891083799303E-4 -0.0034338245168328285 -0.0010755028342828155 8.378492202609777E-4 0.008965273387730122 -0.007947909645736217 0.004377368371933699 -0.011758501641452312 -0.004770849831402302 -0.011370068415999413 -3.87367355870083E-4 0.0012022139271721244 -0.0030923630110919476 -0.0016165674896910787 -0.010818206705152988 -0.01656509004533291 -0.0042044841684401035 0.0027078529819846153 0.005915297195315361 -0.0020302780903875828 0.004433048889040947
above 0.002566494280472398 0.013196553103625774 0.008579887449741364 0.008529726415872574 -0.006731082685291767 -9.788046590983868E-4 6.430754438042641E-4 -0.002538335043936968 -0.005044027231633663 -0.005821932107210159 -0.013262241147458553 0.0014398599741980433 -0.014875993132591248 0.0030473959632217884 -0.005207953043282032 0.0017382760997861624 0.006273397244513035 0.0014212452806532383 -0.00688413018360734 0.003051835112273693 -0.00856991857290268 0.0021367459557950497 0.0136564364656806 -0.005636957474052906 0.006198234856128693 -1.4874638873152435E-4 0.006938751321285963 0.00876541342586279 -0.00981646217405796 0.00785689614713192 2.7569010853767395E-4 -0.0028622562531381845 0.001736654550768435 -0.005477480590343475 0.004609987605363131 0.004384849686175585 -0.007525376044213772 -0.003135593608021736 -0.020558513700962067 -0.007623257581144571 0.00384314707480371 -0.002362266182899475 -0.0037887778598815203 0.00752586405724287 -0.0032286911737173796 0.011979673057794571 -0.0049821678549051285 -0.014609118923544884 -0.0014888481236994267 -0.00250007095746696 0.006871274206787348 0.008471773937344551 -0.002214946085587144 0.001969803124666214 -0.001523331506177783 0.0025596891064196825 0.010605032555758953 0.010032778605818748 -0.0048695825971663 -0.01010849792510271 0.004715485963970423 0.0033243088982999325 -0.005539258010685444 0.01916578784584999 -0.003361513139680028 0.014151150360703468 0.004294362850487232 0.014281027019023895 -6.229847203940153E-4 -0.0026803817600011826 0.004237126559019089 -0.0026304973289370537 5.021467222832143E-4 0.0052618165500462055 -0.006134337279945612 -0.0027664832305163145 0.009216435253620148 0.00995511282235384 3.5239229327999055E-4 0.003173546399921179 -0.0085160993039608 -0.00825854018330574 -0.005506038665771484 -0.0021090807858854532 0.004865124821662903 -0.0015067163622006774 -0.0024771394673734903 0.0035746546927839518 0.008208876475691795 3.5481381928548217E-4 0.0034407146740704775 -9.474634425714612E-4 -0.013241973705589771 0.011177683249115944 0.007883352227509022 0.005905012600123882 -0.005608398467302322 0.017493613064289093 -3.7957055610604584E-4 -0.0014351106947287917 -0.010393445380032063 0.0029336276929825544 0.0053943730890750885 5.600792937912047E-4 -0.021411214023828506 -0.00765240378677845 5.983551382087171E-4 -0.00467885285615921 -0.016219202429056168 0.0019130682339891791 -0.010902180336415768 0.007245365995913744 0.010170213878154755 -0.006442243233323097 -0.008950511924922466 0.0017320867627859116 -0.006951301358640194 0.0030437400564551353 0.0028860336169600487 -0.0054855309426784515 9.714360348880291E-4 -0.0011593654053285718 -0.009104341268539429 0.0020410872530192137 -0.00858458410948515 0.00423221942037344 -0.0018436901737004519 -0.01182611845433712 -0.011762131005525589 -0.001341002294793725 -0.0033200420439243317 -0.003852453548461199 0.007833418436348438 0.006401402875781059 -0.013551411218941212 0.00293107982724905 -0.009939867071807384 -0.006096026860177517 -0.012049006298184395 0.007083143573254347 0.006770942825824022 -0.01714932918548584 0.0022331480868160725 -0.007982413284480572 -0.022306274622678757 -2.430987951811403E-4 0.006133699323982 -0.003997823689132929 0.003698747605085373 0.007754723075777292
let 0.00833282433450222 0.0153901232406497 0.02023005485534668 0.002563381800428033 -0.012830550782382488 -9.692650637589395E-4 0.0044861650094389915 -0.006248710677027702 -0.0022072154097259045 -0.01486350316554308 -0.017542650923132896 0.0058966465294361115 -0.020345594733953476 -0.0022998738568276167 -0.006701537407934666 -0.005338876508176327 0.004127629101276398 0.00479639507830143 -0.018765980377793312 0.00661100260913372 -0.0040150852873921394 0.006584141403436661 0.009969418868422508 -0.0063673583790659904 0.0059853820130229 0.003564924467355013 0.01173541508615017 0.002652999246492982 -0.012106363661587238 0.010790139436721802 0.0027300380170345306 -0.008614513091742992 0.00328073394484818 -0.011134205386042595 -0.005134775303304195 0.004715368617326021 -0.005336958449333906 -0.00958677101880312 -0.03711457550525665 -0.014689680188894272 0.001369808684103191 -8.161159930750728E-4 -0.005726208910346031 0.013943368569016457 -0.0027566864155232906 0.014506449922919273 -0.004630351439118385 -0.024662300944328308 -0.006213643588125706 -0.004951417446136475 0.004007792100310326 0.013717081397771835 0.00977395847439766 0.004747952800244093 -0.0063651627860963345 0.005001282785087824 0.011169984936714172 0.01034970860928297 -0.008579031564295292 -0.020390113815665245 0.009642205201089382 0.01072179526090622 -0.022318707779049873 0.03086089715361595 9.461252484470606E-4 0.023142436519265175 0.015184689313173294 0.012814474292099476 -0.00926295481622219 -0.016099845990538597 -0.001963880378752947 -0.014614341780543327 7.891881396062672E-4 0.007612592540681362 -0.012184628285467625 -0.005528006702661514 0.006351965945214033 0.014192099682986736 9.599598706699908E-5 -0.0038204507436603308 -0.015167923644185066 -0.00548646179959178 -0.00785262044519186 -4.6168838161975145E-4 0.01521996222436428 -0.007993181236088276 -0.0025078654289245605 0.0012590287951752543 0.007012674584984779 4.077900084666908E-4 0.0017587625188753009 0.002112217014655471 -0.02823334001004696 0.02820662036538124 0.014956532046198845 0.012620834633708 -0.014087622053921223 0.030470818281173706 0.0043304963037371635 0.0018452544463798404 -0.022500699386000633 0.013391607441008091 0.00959994550794363 5.629580118693411E-4 -0.028491182252764702 -0.012525110505521297 0.008340665139257908 -4.206945886835456E-4 -0.033307187259197235 0.008295535109937191 -0.009160013869404793 0.01613321714103222 0.011114933528006077 -0.014898973517119884 -0.02221595123410225 -0.004190973937511444 -0.003675761865451932 -0.0059362067840993404 0.00820572767406702 -0.007863474078476429 -0.0037363346200436354 -0.004313760437071323 -0.01593974605202675 -0.002155556809157133 -0.012777203693985939 0.012318046763539314 -0.007730475161224604 -0.019595811143517494 -0.022848263382911682 0.006093570962548256 -0.00912096444517374 -0.0019315640674903989 0.007979155518114567 0.013801137916743755 -0.015842922031879425 0.006256053689867258 -0.029689734801650047 -0.00458489591255784 -0.02346300333738327 0.013036118820309639 0.008261561393737793 -0.017056090757250786 0.004323202650994062 -0.0205314252525568 -0.03760547190904617 -0.0015537774888798594 0.008990791626274586 0.005363223608583212 0.004611896816641092 0.009822279214859009
silence 0.001953624188899994 0.005266478285193443 0.0040094293653965 0.005694498773664236 -0.008738276548683643 -4.890472046099603E-4 8.745032246224582E-4 -1.1342731886543334E-4 -0.004042190033942461 -0.004981265403330326 -0.005507206544280052 0.0013986474368721247 -0.010458854027092457 0.001561590121127665 -0.002780251670628786 0.0016863478813320398 -0.001451146905310452 -0.0029894551262259483 -0.008337599225342274 -4.3784850277006626E-5 -0.007129602134227753 0.0021886229515075684 0.005008140578866005 -8.295191219076514E-4 0.004888967610895634 0.0018645350355654955 0.0027768085710704327 3.513896372169256E-4 -0.006979580968618393 0.002217752393335104 0.0011543553555384278 -0.004865146242082119 0.0021198245231062174 -0.002288810210302472 3.9891008054837584E-4 0.0012783786514773965 -7.736310944892466E-4 -0.004820660222321749 -0.014307205565273762 -0.003865506500005722 -0.0028335347305983305 1.3224441499914974E-4 3.1932900310494006E-4 0.0071974266320466995 -0.0023283716291189194 0.005483734421432018 -7.696396205574274E-4 -0.010864662006497383 0.0017909512389451265 -4.770621017087251E-4 0.0036434147041291 0.007210690528154373 5.15707884915173E-4 -0.0015938866417855024 -9.684519609436393E-4 0.0042802393436431885 0.0026265408378094435 0.007617702707648277 -0.003039981471374631 -0.0060410695150494576 0.005475285928696394 0.004051916301250458 -0.0056615411303937435 0.01263552624732256 -5.245788488537073E-4 0.0055033061653375626 0.004390436224639416 0.006805749610066414 -0.001635023974813521 -0.00553448311984539 0.0023308591917157173 1.2062146561220288E-4 0.003187543712556362 0.004988762084394693 -0.004984491970390081 0.0032510836608707905 0.004875838756561279 0.0076162684708833694 0.0029892916791141033 4.32681234087795E-4 -0.004333737306296825 -0.004553190898150206 -0.005806893575936556 1.169295865111053E-4 0.007754143793135881 -0.0039562867023050785 -0.00425482215359807 -6.200873758643866E-5 5.13198203407228E-4 -8.838348439894617E-4 -0.0014731594128534198 0.0011092217173427343 -0.011038951575756073 0.011234775185585022 0.0019887560047209263 4.180654068477452E-4 -0.005837939213961363 0.008598477579653263 4.6281522372737527E-4 0.001998648978769779 -0.008219587616622448 0.005507596302777529 0.003622762393206358 -1.9967244588769972E-4 -0.010166484862565994 -0.0032090989407151937 0.005315959919244051 -0.004687726031988859 -0.009940454736351967 0.0027564424090087414 -0.005405156873166561 0.004651524126529694 0.0034370594657957554 -0.0024921679869294167 -0.004517971538007259 0.0035267749335616827 -0.005511578172445297 -0.0031526233069598675 -4.0134601294994354E-4 3.431359073147178E-5 0.0039295959286391735 -9.476827690377831E-4 -0.009273458272218704 -0.002500027185305953 -0.0023760495241731405 0.007457622326910496 -8.3697828813456E-5 -0.008574238047003746 -0.005830772221088409 0.0027383023407310247 -5.06374635733664E-4 8.880062378011644E-4 0.006087019108235836 0.0011367311235517263 -0.007993054576218128 -6.225492688827217E-4 -0.010221295058727264 -0.0019934268202632666 -0.006559574510902166 0.001770384842529893 0.0038822065107524395 -0.005012906156480312 0.003924040589481592 -0.005503615830093622 -0.013252217322587967 -0.0013443068601191044 0.006174630951136351 -0.0026199272833764553 2.0073528867214918E-4 0.005433226935565472
moving 0.016708169132471085 0.033630866557359695 0.04438871890306473 0.008430562913417816 -0.03322342783212662 -0.0019760720897465944 0.004657852929085493 -0.009418134577572346 -0.010328803211450577 -0.027997473254799843 -0.03470121696591377 0.01037200540304184 -0.03835058584809303 -0.0016143042594194412 -0.01685553789138794 -0.008200564421713352 0.005876749288290739 0.0059386990033090115 -0.039371639490127563 0.013104193843901157 -0.014227088540792465 0.012588436715304852 0.029729053378105164 -0.015148526057600975 0.006905886810272932 0.011668778024613857 0.028167102485895157 0.006433410104364157 -0.022518198937177658 0.027342423796653748 0.005658367648720741 -0.01827019639313221 0.010468637570738792 -0.025149188935756683 -0.008692397736012936 0.014372637495398521 -0.005043037701398134 -0.010070066899061203 -0.07695510238409042 -0.036926694214344025 -2.5464387726970017E-4 -0.001525024650618434 -0.017426282167434692 0.026332009583711624 -0.006280545145273209 0.02909274771809578 -0.012844529934227467 -0.05306022986769676 -0.006334739271551371 -0.01138233207166195 0.006111788097769022 0.029664071276783943 0.012065512128174305 0.016667157411575317 -0.012022706679999828 0.015448077581822872 0.012712796218693256 0.02228396199643612 -0.016815222799777985 -0.038113899528980255 0.011822689324617386 0.024963436648249626 -0.0482829287648201 0.06334950029850006 -0.0037416850682348013 0.04719125106930733 0.02264188975095749 0.034739285707473755 -0.013169133104383945 -0.024652421474456787 0.0015909631038084626 -0.025410832837224007 0.006380216218531132 0.0070760976523160934 -0.025634048506617546 -0.007633368484675884 0.01881859079003334 0.026178017258644104 0.004764716140925884 -0.01088888943195343 -0.03864338621497154 -0.01464508194476366 -0.021048640832304955 -0.0010100355139002204 0.02835320495069027 -0.005896385759115219 -0.014255606569349766 0.003786940360441804 0.010944625362753868 0.0037128508556634188 0.004736841656267643 0.0054936762899160385 -0.05020413175225258 0.060997288674116135 0.03611199930310249 0.019803255796432495 -0.026412788778543472 0.061115674674510956 0.0028388381469994783 0.013510730117559433 -0.042153097689151764 0.01998002827167511 0.011851709336042404 -0.0030468914192169905 -0.06682050228118896 -0.03356241434812546 0.02071915939450264 -0.008716249838471413 -0.06763046979904175 0.016223415732383728 -0.015528887510299683 0.04245966300368309 0.028093863278627396 -0.029902895912528038 -0.041774217039346695 -0.001847628504037857 -0.010263716802001 -0.00975951086729765 0.020523302257061005 -0.023324303328990936 -8.508193423040211E-4 -0.01665181666612625 -0.03415039926767349 -0.010943032801151276 -0.03157574683427811 0.030411992222070694 -0.009309202432632446 -0.03867693245410919 -0.039084963500499725 0.006243176758289337 -0.015776144340634346 -0.0012371487682685256 0.015742462128400803 0.0236216951161623 -0.03835176303982735 0.007875668816268444 -0.05917251855134964 -0.009420813992619514 -0.05942637473344803 0.023441452533006668 0.013797838240861893 -0.03464547544717789 0.013553282245993614 -0.04010961577296257 -0.07437252253293991 -0.009131466038525105 0.021507320925593376 0.002935923868790269 0.005373785737901926 0.02806597761809826
you 0.004676260985434055 0.007021612953394651 0.020597847178578377 -0.0076311929151415825 -0.005286559462547302 -0.00860560778528452 0.00711531937122345 -0.001729543088003993 -0.009739800356328487 -0.012287973426282406 -0.008870579302310944 0.008150968700647354 -0.014057392254471779 -0.006512220948934555 -1.6196547949220985E-4 -0.011416145600378513 6.036495906300843E-4 0.007571516092866659 -0.012270069681107998 0.007083697244524956 -0.0021635645534843206 -2.0392391888890415E-4 -3.420828215894289E-5 -0.0017804132075980306 -9.280634112656116E-4 0.013642636127769947 0.015296592377126217 -0.007914162240922451 -0.00467237364500761 0.009852527640759945 0.002699113916605711 -0.012346914038062096 0.0018335090717300773 -0.00898675061762333 -0.007747262716293335 0.005136596038937569 -0.0032223162706941366 -4.1080380469793454E-5 -0.03149467334151268 -0.019625650718808174 0.002515160944312811 -0.004136829636991024 -0.0038599784020334482 0.004878064151853323 0.003020165953785181 8.058201055973768E-4 -0.01200508140027523 -0.012155833654105663 -0.006329769268631935 -0.005781325977295637 0.003794902702793479 0.012490282766520977 0.008012664504349232 0.004237370099872351 -0.004967471584677696 0.00882628746330738 0.0012944599147886038 0.006383919157087803 -0.004779789596796036 -0.013229873962700367 0.009112454019486904 0.012470703572034836 -0.02459256909787655 0.022178523242473602 -0.001457928097806871 0.0117286816239357 0.006728889886289835 0.0075183892622590065 -0.002943797269836068 -0.010516511276364326 -0.0021084528416395187 -0.012414202094078064 0.0013121480587869883 0.0014935104409232736 -0.011582396924495697 0.0019413594854995608 0.006093628704547882 0.00851763691753149 -1.8703345267567784E-4 -0.005713247694075108 -0.013281671330332756 0.005104791838675737 -0.01354196760803461 -0.0024417589884251356 0.010577136650681496 -0.005597073584794998 -0.00727582024410367 0.0037577487528324127 0.0012678139610216022 0.0011094720102846622 0.00438000587746501 -0.002013776684179902 -0.020875349640846252 0.026876315474510193 0.01951100490987301 0.007620109245181084 -0.014573135413229465 0.029071364551782608 0.0019447222584858537 0.008921956643462181 -0.015839798375964165 0.009476812556385994 0.00856334250420332 8.163150632753968E-4 -0.017514148727059364 -0.009763906709849834 0.011777019128203392 0.0011456668144091964 -0.02453899011015892 0.009481477551162243 -0.0033881445415318012 0.009286319836974144 0.004636617377400398 -0.0050800940953195095 -0.0141257643699646 -0.010585824027657509 7.834922289475799E-4 -0.012567609548568726 0.003477497724816203 -0.01262007188051939 -0.0038110383320599794 -0.012593424879014492 -0.013946086168289185 -0.013582384213805199 -0.016255518421530724 0.007901168428361416 -0.008646270260214806 -0.010961436666548252 -0.012272808700799942 0.00744170555844903 -0.008156304247677326 -0.0020516905933618546 0.0064179617911577225 0.011701332405209541 -0.005583495832979679 0.00194315065164119 -0.020281117409467697 -0.005594118498265743 -0.020734326913952827 -4.933872260153294E-4 0.001733514596708119 -0.007860645651817322 -0.006482697557657957 -0.007733992300927639 -0.024827903136610985 -0.011418608948588371 0.004671020898967981 0.006754720583558083 -0.004080401733517647 0.014086483046412468
ran 4.83413168694824E-6 -0.0019711158238351345 4.543305840343237E-4 -0.0016449694521725178 -0.0014459738740697503 0.0020905209239572287 9.357951348647475E-4 -0.0011952253989875317 0.0025350614450871944 -0.0030461670830845833 -0.0018575352150946856 4.87804994918406E-4 -0.0023614107631146908 -0.0018723208922892809 -0.003310475032776594 0.0017722665797919035 -3.120044420938939E-4 -7.576212519779801E-4 -6.351427873596549E-4 0.002098205965012312 -0.0033082053996622562 -8.073035860434175E-5 -4.493836313486099E-4 0.0010663316352292895 -0.0025254222564399242 -0.001781362690962851 -0.003106760559603572 0.0020689417142421007 -0.0018511858070269227 0.002163506345823407 -1.0732816008385271E-4 8.327407413162291E-4 0.00309205474331975 7.669234764762223E-4 -0.0015272061573341489 -0.001230937079526484 0.0016491690184921026 -1.4379699132405221E-4 8.528137113898993E-4 -9.189028642140329E-4 -0.001762490370310843 -5.73381083086133E-4 -0.0029037354979664087 0.002999500837177038 -5.642176256515086E-4 -6.243654061108828E-4 0.002747695194557309 -9.86954546533525E-4 0.0030699006747454405 0.0011883900733664632 -1.8933661340270191E-4 0.0029870481230318546 0.0012282280949875712 -0.002783977659419179 0.0018751458264887333 0.0012558364542201161 0.003429389325901866 -0.0030072482768446207 -0.002121588448062539 0.0024799001403152943 9.906974155455828E-4 -0.002108673332259059 -0.002392074093222618 -0.002170966938138008 0.0018053915118798614 0.0018693723250180483 0.0018827621825039387 0.0028292909264564514 -0.002804002957418561 -8.79917643032968E-4 -0.001016773865558207 -1.1251700925640762E-4 -0.0015853163786232471 9.275568882003427E-4 -0.0017018552171066403 -9.913311805576086E-4 6.780144176445901E-4 0.002123752608895302 0.0014980793930590153 0.0026544048450887203 0.002272909739986062 -1.561631797812879E-4 -0.0018759843660518527 -0.0016829322557896376 -1.001696364255622E-4 0.0018966011703014374 0.0018384744180366397 -0.0010070125572383404 0.0020714267157018185 3.3887295285239816E-4 3.945528296753764E-4 -0.0017338247271254659 2.855055208783597E-4 0.0013944635866209865 -0.003106361487880349 0.002954428317025304 1.1228506627958268E-4 5.233020056039095E-4 -6.394083029590547E-4 -0.0024212347343564034 0.0027670280542224646 0.002179843606427312 0.0014787917025387287 -0.0018072702223435044 0.0030980375595390797 -0.001840486889705062 0.001623357878997922 -2.595828555058688E-4 -0.0013129395665600896 -0.0016044058138504624 -0.0014343587681651115 0.0024872166104614735 -0.0031486323568969965 -1.9238749518990517E-4 -0.0014609142672270536 -7.169730379246175E-4 -0.0028588054701685905 0.001629442791454494 -8.800578652881086E-4 -0.0022807777859270573 0.001988000236451626 -9.699785150587559E-4 8.22762493044138E-4 -0.00279122032225132 0.002318385988473892 9.622449288144708E-4 0.003361138515174389 0.001068637240678072 -3.3550095395185053E-4 0.0010193914640694857 -5.104129668325186E-4 0.0024623959325253963 -0.0018691685982048512 -0.0026892730966210365 -0.0014693955890834332 0.0018063905881717801 0.0012905490584671497 0.0010089066345244646 0.002437029965221882 0.0021882581058889627 0.0014713202835991979 -0.0019030042458325624 -0.0029154501389712095 -0.0021824187133461237 -3.1943561043590307E-4 -7.203238201327622E-4 -0.0014121757121756673 -0.0014912690967321396 2.1079665748402476E-4 0.001320800743997097
they 0.012792370282113552 0.029074212536215782 0.04165129363536835 0.009455851279199123 -0.027148205786943436 -0.001261967234313488 0.007374380249530077 -0.004067505709826946 -0.004101637285202742 -0.02424701489508152 -0.027934541925787926 0.006051270291209221 -0.032804884016513824 -0.00310273258946836 -0.016308534890413284 -0.004361757077276707 0.003483331296592951 0.008165192790329456 -0.03165978565812111 0.014519507996737957 -0.012517307884991169 0.011428789235651493 0.02260398492217064 -0.010531354695558548 0.011686629615724087 0.01127867866307497 0.021079448983073235 0.011741966009140015 -0.013498015701770782 0.02215036191046238 0.004917549435049295 -0.012493454851210117 0.010739458724856377 -0.019427992403507233 -0.004864848684519529 0.009747378528118134 -0.007009807042777538 -0.011515635997056961 -0.06236385181546211 -0.02767975442111492 -6.644952809438109E-4 -3.568650208762847E-5 -0.008861903101205826 0.01936587691307068 -0.005986971780657768 0.023569293320178986 -0.006422115955501795 -0.03980717808008194 -0.0029530255123972893 -0.011971980333328247 0.005939729046076536 0.01851826347410679 0.010251550935208797 0.009595711715519428 -0.013426103629171848 0.010265305638313293 0.013467760756611824 0.017114054411649704 -0.012482063844799995 -0.02895641140639782 0.01173076406121254 0.015842052176594734 -0.03373319283127785 0.05056547373533249 -0.0026147246826440096 0.0405777171254158 0.02170860394835472 0.027367372065782547 -0.013181827962398529 -0.01963295415043831 0.0021478915587067604 -0.01668202504515648 0.008334312587976456 0.007244748529046774 -0.016998011618852615 -0.004578911233693361 0.01482761837542057 0.014663735404610634 0.003996418789029121 -0.0025358162820339203 -0.030115174129605293 -0.013932163827121258 -0.018946614116430283 0.002285262104123831 0.018687913194298744 -0.004106405656784773 -0.00938430055975914 0.006694335024803877 0.006888019852340221 0.004876584280282259 0.0025153544265776873 0.004717377480119467 -0.0398382805287838 0.04760761559009552 0.029931899160146713 0.013835662044584751 -0.01938321441411972 0.04777703061699867 0.003322572447359562 0.006096613127738237 -0.035256560891866684 0.014542139135301113 0.008779344148933887 -0.0018706305418163538 -0.0551607608795166 -0.026691772043704987 0.018203776329755783 -0.006346370559185743 -0.05141556262969971 0.010773950256407261 -0.016398968175053596 0.03357608988881111 0.021336179226636887 -0.02440734952688217 -0.03331330046057701 -0.0026689653750509024 -0.009568979032337666 -0.0034685691352933645 0.017098041251301765 -0.013151376508176327 9.114289423450828E-5 -0.008581114001572132 -0.026497533544898033 -0.0015445317840203643 -0.024799657985568047 0.022720972076058388 -0.007616463117301464 -0.030231421813368797 -0.033801984041929245 0.007328334730118513 -0.017813973128795624 0.003272008616477251 0.012352364137768745 0.018419452011585236 -0.03021598421037197 0.004452107939869165 -0.04854917153716087 -0.0067558567970991135 -0.04569568112492561 0.01863854005932808 0.011382663622498512 -0.028960058465600014 0.011093869805335999 -0.033143043518066406 -0.06001643091440201 -0.004262540023773909 0.014854524284601212 0.005202826112508774 0.005721187684684992 0.016505204141139984
gaining 0.005347434896975756 0.01601523533463478 0.019088122993707657 0.0024210361298173666 -0.014582144096493721 -0.003935738001018763 0.005743518937379122 -0.004861372988671064 -0.005617838818579912 -0.014376968145370483 -0.012890487909317017 0.0020056841894984245 -0.018209872767329216 8.864373667165637E-4 -0.009665819816291332 -0.0011947639286518097 0.004364119842648506 0.004938079044222832 -0.017884334549307823 0.005859024822711945 -0.00436897948384285 0.004690463654696941 0.013137790374457836 -0.009143411181867123 0.0077753071673214436 0.0034565390087664127 0.010680366307497025 0.007648407015949488 -0.010548037476837635 0.013109972700476646 0.0052817100659012794 -0.008541134186089039 0.0011974632507190108 -0.013198508881032467 -0.0018499910365790129 0.010512330569326878 -0.0027410979382693768 -0.007138505578041077 -0.033956654369831085 -0.01730458438396454 0.003556228941306472 0.0018660069908946753 -0.006428222171962261 0.011602615006268024 -0.0024927968624979258 0.009912426583468914 -0.0035274685360491276 -0.026573365554213524 -0.0013934621820226312 -0.00587107427418232 0.005215222015976906 0.013955334201455116 0.004809366073459387 0.007293979171663523 -0.009862196631729603 0.005545728839933872 0.010835736058652401 0.007489290088415146 -0.007198716513812542 -0.017045047134160995 0.004633686505258083 0.008393200114369392 -0.023690344765782356 0.028920814394950867 -0.003105849027633667 0.017977049574255943 0.013584044761955738 0.01743294671177864 -0.00851279404014349 -0.013356358744204044 -2.9867318517062813E-5 -0.010136254131793976 3.409172350075096E-4 0.00753482710570097 -0.00835381355136633 -0.001822351710870862 0.005972588900476694 0.009684430435299873 -3.028875507880002E-4 -0.0023079290986061096 -0.01680922508239746 -0.0074700661934912205 -0.006139540113508701 -1.1723864008672535E-4 0.013384543359279633 -0.002827211283147335 -0.003153732744976878 8.473927737213671E-4 0.005959454923868179 0.0020319789182394743 0.002731738844886422 0.0030151735991239548 -0.02510659210383892 0.029315976426005363 0.012886307202279568 0.009078333154320717 -0.013076802715659142 0.029953675344586372 -0.00172605668194592 0.007413927465677261 -0.018652373924851418 0.008825629949569702 0.006080134771764278 -0.002075119875371456 -0.0266182329505682 -0.01420366857200861 0.009304584003984928 -0.0027324757538735867 -0.02918311394751072 0.008821372874081135 -0.0057326797395944595 0.01623653993010521 0.012437772937119007 -0.009614018723368645 -0.01820879802107811 -0.0035628757905215025 -0.00212120427750051 -5.669584061251953E-5 0.008543645963072777 -0.010447852313518524 -3.0843037529848516E-4 -0.008320286870002747 -0.013024809770286083 -0.002562888665124774 -0.013095869682729244 0.018183114007115364 -0.0038545806892216206 -0.014006963931024075 -0.018241526558995247 0.004141286481171846 -0.010485095903277397 0.003829893423244357 0.011907199397683144 0.013188556768000126 -0.01516027469187975 0.0025621496606618166 -0.029901012778282166 -0.0051577528938651085 -0.02669566497206688 0.007214557379484177 0.009648488834500313 -0.019395386800169945 0.004739767871797085 -0.021293645724654198 -0.035758182406425476 -6.312408950179815E-4 0.006243983283638954 1.0294959065504372E-4 0.0010687541216611862 0.009754008613526821
sure 0.0028501220513135195 0.004917298909276724 0.002942744642496109 0.0010810657404363155 -0.001541806966997683 -0.0028256422374397516 -8.675236604176462E-4 -0.0020839418284595013 -0.0030657993629574776 -0.005551774986088276 -0.0053357877768576145 3.303884877823293E-4 -0.0022955825552344322 0.0018112680409103632 0.0010900847846642137 2.759534982033074E-5 -0.0034011437091976404 -1.6666165902279317E-4 -0.00603044219315052 0.0026638489216566086 0.002528366632759571 8.210149826481938E-4 -3.433468518778682E-4 -0.002131533110514283 0.001844853162765503 0.0011062778066843748 0.002268719021230936 -0.0032254927791655064 9.566042572259903E-4 0.0026743756607174873 4.729066858999431E-4 -7.380297174677253E-4 0.0031264587305486202 -0.006177686620503664 -0.00518758362159133 0.00260522891767323 0.002932882634922862 1.3965199468657374E-4 -0.01188272051513195 -0.002170306397601962 1.0341851157136261E-4 0.0032456552144140005 -7.071574218571186E-4 -5.108965560793877E-4 -0.002310156123712659 0.00301749212667346 -0.003593446221202612 -0.007878960110247135 -0.003910161089152098 -0.002818836597725749 4.059812054038048E-4 0.00297871557995677 3.858207492157817E-5 0.00375469122081995 -0.002698429161682725 8.249862003140152E-5 -0.0020462588872760534 0.0051728785037994385 1.3150821905583143E-4 -0.0056637972593307495 0.0038295357953757048 0.006707043386995792 -0.00785780604928732 0.009083963930606842 -0.0016886100638657808 0.00816231220960617 0.004330368712544441 0.002884021494537592 -0.003906327299773693 -0.002655423479154706 -0.0016932502621784806 -0.004147391300648451 5.521980347111821E-5 -6.177030736580491E-4 -4.066476540174335E-4 0.0013129725120961666 -3.91563429730013E-4 0.005793407559394836 -0.002051359275355935 0.0014441212406381965 -0.002768094651401043 -5.530376802198589E-5 -0.0017691091634333134 0.0016925242962315679 0.0011855921475216746 0.0012090065283700824 -0.002890333766117692 -0.002018356928601861 5.029859021306038E-4 -0.0031231434550136328 2.5875840219669044E-4 -0.002212448976933956 -0.00902023445814848 0.00463679526001215 0.008206036873161793 9.07641660887748E-4 -0.005812386516481638 0.007326819933950901 -0.0031843744218349457 0.0019695686642080545 -0.005738324020057917 7.112047169357538E-4 0.002883295528590679 0.0022209533490240574 -0.004729599691927433 -0.005536150652915239 0.004435322247445583 -0.0013767119962722063 -0.005411053076386452 0.0022278574761003256 -3.933533444069326E-4 0.006268506869673729 0.0018256395123898983 -4.5018194941803813E-4 -0.007080533541738987 -7.580806268379092E-4 -0.0032627948094159365 6.816601962782443E-4 0.001997525803744793 -0.00373489735648036 -0.003123118309304118 -0.002265127142891288 -0.0031476402655243874 -0.002998212119564414 -0.00265649426728487 0.0046850815415382385 -0.002397536765784025 -0.00540234986692667 -0.007498867344111204 0.0038008815608918667 -1.2342422269284725E-4 1.9660507678054273E-4 0.003245734144002199 0.005633914843201637 -0.0038712099194526672 7.276334217749536E-4 -0.006281394511461258 -0.0021515251137316227 -0.007831647992134094 -2.928697504103184E-4 0.0042676436714828014 2.754343440756202E-4 0.0031452905386686325 -0.0029909592121839523 -0.006028491538017988 0.0019954927265644073 0.0019175874767825007 0.0040318951942026615 0.001814968534745276 0.004205820616334677
began 0.004165569320321083 0.001592925051227212 0.00481280405074358 -0.0014970549382269382 -0.0036296045873314142 -0.002771087922155857 -0.0027382683474570513 -0.0022348258644342422 8.527137106284499E-4 -0.005859591532498598 -0.00549439899623394 0.0047013903968036175 -0.007320072967559099 -0.003891976550221443 -0.0014334442093968391 -0.0038119726814329624 -0.0032070146407932043 1.679794950177893E-4 -0.004494104068726301 0.002246110001578927 0.001010810723528266 0.003172053722664714 0.002912134164944291 0.0022841354366391897 -9.26983411773108E-5 0.006203086581081152 0.0022873966954648495 -0.002970053581520915 1.6294154920615256E-4 6.009866483509541E-4 -2.1236023167148232E-4 -0.0018110844539478421 0.0026739242020994425 -0.0031624219845980406 -0.003116077743470669 0.004022178705781698 0.0012760402169078588 0.0010808632941916585 -0.006969826761633158 -0.008180668577551842 0.0012670020805671811 0.0016081416979432106 -0.0036663790233433247 3.320093092042953E-4 -0.001249730703420937 0.0011549192713573575 -0.002395582152530551 -0.005509642884135246 -9.95176495052874E-4 -0.004937017802149057 5.202818429097533E-4 0.0033562316093593836 0.003282167948782444 0.005040201358497143 3.542585182003677E-4 0.0019178796792402864 2.8278023819439113E-4 4.678468394558877E-5 -0.003105792449787259 -0.004199695307761431 0.0011515195947140455 0.0038191196508705616 -0.00644407793879509 0.010760139673948288 0.002675294876098633 0.0051534054800868034 0.0030530013609677553 0.0021410936024039984 -0.002222103765234351 -0.0011653936235234141 -0.0022500657942146063 -0.005077721085399389 -0.0011894688941538334 9.592367568984628E-4 -0.004316383972764015 -1.4863864635117352E-4 0.0019480226328596473 0.004085862543433905 7.425267831422389E-4 2.6221058215014637E-4 -0.007618619129061699 -0.0033789477311074734 -0.0021667801775038242 -0.002084743697196245 0.005024074111133814 -0.0010174509370699525 -0.0051551153883337975 -0.0020790083799511194 -4.20076452428475E-4 -0.0018840485718101263 0.0020639661233872175 -0.0021254965104162693 -0.00646799523383379 0.008831656537950039 0.008263355121016502 0.0016511401627212763 -0.005290505476295948 0.006273193284869194 0.0020686511415988207 0.0016052970895543694 -0.006061519030481577 0.0044949669390916824 0.002653019968420267 -0.0038168923929333687 -0.005822125822305679 -0.0023209047503769398 -3.0291368602775037E-5 0.0014508235035464168 -0.010599186643958092 0.001109146629460156 -0.0036395350471138954 0.005221394822001457 0.0012856022221967578 -0.0014841980300843716 -0.004743663128465414 -0.0033654775470495224 0.0019230105681344867 -0.0041702319867908955 0.0011833587195724249 -0.0052764215506613255 -0.001621468341909349 -0.00510139437392354 -0.004911656957119703 -0.001763438805937767 -3.0799751402810216E-4 0.0076313563622534275 -8.901366381905973E-4 -0.002588898641988635 -0.0021029517520219088 0.0033147491049021482 -0.004518146626651287 -1.0467832908034325E-4 -3.809903282672167E-4 0.006478882394731045 -0.004352408926934004 -7.8610610216856E-5 -0.011414372362196445 0.0031002436298877 -0.005664861761033535 -3.892800596076995E-4 -0.0015762191032990813 -7.670900959055871E-5 -0.0019992992747575045 -0.0067171575501561165 -0.006025581154972315 -0.0033675439190119505 9.980525355786085E-4 4.5351419248618186E-4 0.0018552873516455293 0.004639731720089912
going 0.0024976914282888174 0.008718734607100487 0.018682528287172318 0.006337410770356655 -0.011383923701941967 -0.004863983020186424 0.002832352416589856 1.1806412658188492E-4 -0.0032220894936472178 -0.01191968284547329 -0.010914565995335579 0.002907417481765151 -0.01886633038520813 -0.00375909311696887 -0.006900744512677193 -0.0010995527263730764 -9.55077528487891E-4 0.003383717965334654 -0.016153933480381966 0.005132290534675121 -0.006821431219577789 0.00333762145601213 0.011043291538953781 -0.0023491964675486088 0.0024777918588370085 0.0066523137502372265 0.012765212915837765 0.0016380648594349623 -0.00855411496013403 0.007624227087944746 4.864009388256818E-4 -0.007343833800405264 7.300212746486068E-4 -0.009419500827789307 -7.559537189081311E-4 0.0029768524691462517 -0.0023861241061240435 -0.005814990494400263 -0.026719557121396065 -0.015358139760792255 0.0016525445971637964 -0.0015783109702169895 -0.003545945743098855 0.005482872948050499 -0.002629857510328293 0.008302336558699608 -0.007535859476774931 -0.021464630961418152 -0.0015035943360999227 -0.008504739962518215 3.134958678856492E-4 0.010987344197928905 0.007312098052352667 0.004317326005548239 -0.0032658190466463566 0.0038799368776381016 0.007370162755250931 0.010918443091213703 -0.005979584529995918 -0.012398176826536655 0.007969919592142105 0.007895932532846928 -0.01998080499470234 0.023116085678339005 1.1186577467015013E-4 0.014056505635380745 0.008741370402276516 0.012764859944581985 -0.005780969280749559 -0.008299093693494797 -7.692633662372828E-4 -0.012287872843444347 -2.964921877719462E-4 0.0066553037613630295 -0.008262365125119686 -0.0015951956156641245 0.005128097720444202 0.011580180376768112 2.7471117209643126E-4 -0.002766014775261283 -0.012612908147275448 -0.005444422829896212 -0.00996351521462202 0.002608030568808317 0.00995617639273405 -0.0027491480577737093 -0.004775562789291143 0.0031404115725308657 0.0032184168230742216 0.0024252391885966063 -0.0012378112878650427 0.001745718764141202 -0.022609028965234756 0.02175796963274479 0.012942136265337467 0.006252702791243792 -0.010469469241797924 0.024139555171132088 0.002647122833877802 0.00768523383885622 -0.0164329931139946 0.007349035236984491 0.004015252459794283 -0.0016368090873584151 -0.022731825709342957 -0.009268050082027912 0.008791974745690823 -0.0024779175873845816 -0.027720339596271515 0.0019237985834479332 -0.006129059940576553 0.012873608618974686 0.008870335295796394 -0.006747784558683634 -0.014073438942432404 -0.0036658786702901125 -0.0050333901308476925 -0.003581732278689742 0.0045583369210362434 -0.009919926524162292 -0.0012768070446327329 -0.007258476689457893 -0.014113702811300755 -0.00436137430369854 -0.007721130736172199 0.009119509719312191 -0.0043776691891252995 -0.017332667484879494 -0.016842307522892952 -5.1952083595097065E-5 -0.0071344682946801186 0.003916618879884481 0.006888192147016525 0.008470900356769562 -0.014061938039958477 1.3852219854015857E-4 -0.023318713530898094 -0.0018452063668519258 -0.018163591623306274 0.01068149134516716 0.008416962809860706 -0.015111465007066727 0.002722314791753888 -0.016675209626555443 -0.028100499883294106 -9.870051871985197E-4 0.004701295867562294 5.729329423047602E-4 0.0033354819752275944 0.012534085661172867
past 0.005038360599428415 0.010119597427546978 0.007357135880738497 0.006101283710449934 -0.0070456028915941715 0.0028632001485675573 0.005467637442052364 -0.00516754062846303 -0.0028734372463077307 -0.002631583483889699 -0.009661451913416386 -0.0026113379281014204 -0.009681644849479198 0.0017610364593565464 -0.004227122291922569 -0.0017179666319862008 0.005666979122906923 -9.309044107794762E-4 -0.007851394824683666 0.0045496621169149876 -0.004896408878266811 0.00725560775026679 0.009854685515165329 -0.003792647970840335 0.003254272509366274 0.0031034303829073906 0.0034891224931925535 0.00502435490489006 -0.005062074400484562 0.006418559700250626 -0.0015600681072100997 -7.855927105993032E-4 0.0031151478178799152 -9.879013523459435E-4 -9.140570182353258E-5 0.002093253657221794 -0.003145824186503887 9.292548056691885E-4 -0.016176726669073105 -0.006151839159429073 0.0031398271676152945 -3.593088476918638E-4 6.878827698528767E-4 0.009198037907481194 -7.750953081995249E-4 0.006992402020841837 -0.003056731540709734 -0.014040959067642689 -0.0016669187461957335 -0.003996249753981829 0.005228891037404537 0.0030640556942671537 -1.022843352984637E-4 -4.6457635471597314E-4 -0.0025250043254345655 1.0847733210539445E-4 0.005231659393757582 0.004675770178437233 -1.5864381566643715E-4 -0.0070853205397725105 0.0056709363125264645 0.00466378265991807 -0.003284418024122715 0.013564405031502247 -1.9149798026774079E-4 0.008305396884679794 0.004924730863422155 0.010860169306397438 0.0013692604843527079 -0.003278225427493453 0.0028666288126260042 -0.005065073724836111 -0.001788953086361289 0.0046000005677342415 -0.0021363208070397377 -5.591787630692124E-4 0.0035977743100374937 0.009147840552031994 -0.0015682674711570144 0.001444891793653369 -0.0028606706764549017 -0.001578805036842823 -0.0019575688056647778 0.001413515186868608 0.0024412302300333977 -0.0032703601755201817 -0.00233434047549963 0.004047376569360495 0.004485967103391886 0.0014834185130894184 -6.386988097801805E-4 0.0027624734211713076 -0.008633711375296116 0.009746309369802475 0.002517894608899951 0.0035705799236893654 -7.886001258157194E-4 0.010540193878114223 0.001338690984994173 0.0027951726224273443 -0.007952317595481873 0.004499803762882948 0.004914738237857819 -0.0016457564197480679 -0.013454299420118332 -0.008102502673864365 -2.1264792303554714E-4 -0.0011703867930918932 -0.01267880480736494 0.0028635775670409203 -0.004504208452999592 0.010122917592525482 0.006356528960168362 -0.00889514945447445 -0.007317978888750076 0.003161981701850891 -0.005390993785113096 -0.0015774928033351898 0.0027199769392609596 -0.001539982040412724 0.002549717202782631 0.0015562506159767509 -0.007268746383488178 0.003094242187216878 -0.008090037852525711 0.004570947028696537 2.676871372386813E-4 -0.00672831991687417 -0.010619567707180977 -3.200234496034682E-4 -0.003874334739521146 -0.003862367942929268 0.005119000561535358 0.006869861856102943 -0.008901008404791355 0.004091976676136255 -0.011098702438175678 -0.005839067976921797 -0.012327206321060658 0.006454525049775839 0.007398308254778385 -0.012488188222050667 0.003114305902272463 -0.004862818866968155 -0.011762748472392559 -0.0022420957684516907 0.009302345104515553 -0.0014184181345626712 0.002690650289878249 0.004302884452044964
remain 0.003695232793688774 0.0024512584786862135 0.005742174107581377 -0.0015926975756883621 -0.0027877737302333117 -5.642775213345885E-4 -2.2297201212495565E-5 -0.003272060537710786 -0.0016946755349636078 -0.002142556244507432 -6.580151384696364E-4 7.724500028416514E-4 -0.005074270535260439 -0.0020028548315167427 0.0017769004916772246 0.002218496985733509 -3.0326179694384336E-4 0.002719936426728964 -0.0020741778425872326 0.0041166567243635654 -0.004104830790311098 -5.950614577159286E-4 0.003777020610868931 -0.001807089545764029 -0.0013950749998912215 0.0021628320682793856 3.24435270158574E-4 0.003659631125628948 -0.002120151650160551 0.001028822036460042 0.002109422581270337 2.5332754012197256E-4 0.002598656341433525 -0.0019136888440698385 -0.0020392469596117735 -0.0019509338308125734 -8.627544157207012E-4 -3.4525617957115173E-4 -0.004025743342936039 7.883402286097407E-4 -0.0018079258734360337 6.174556910991669E-4 -0.004003564361482859 0.0019942971412092447 -0.003171183867380023 0.0021350113674998283 0.001971455058082938 -0.005738886538892984 -0.0013712233630940318 -0.0022945022210478783 5.856980569660664E-4 0.0023233420215547085 0.001084638643078506 2.4289193970616907E-4 -0.0020291695836931467 -0.0010719430865719914 0.002446488244459033 0.004836569540202618 9.388162288814783E-4 -9.294564370065928E-4 0.0016947564436122775 6.090762326493859E-4 -0.0035006306134164333 0.007348968181759119 -0.0014553772052749991 0.0045067304745316505 -1.786397333489731E-4 0.0021012891083955765 -0.0036331682931631804 -0.002299270126968622 0.0029464284889400005 0.0012961444444954395 0.0025127995759248734 0.0029280339367687702 8.557647815905511E-4 0.002544008893892169 0.003347608493641019 0.004120740108191967 0.003537731245160103 -4.6150729758664966E-4 -0.004283746238797903 -0.0018533742986619473 -0.001855270005762577 8.566143224015832E-4 0.0016709023620933294 0.0011151491198688745 0.001871778047643602 -0.002280598971992731 0.003907435107976198 -0.0017923058476299047 0.002480322727933526 0.003573537804186344 -0.00419154716655612 0.0037133018486201763 0.0053593674674630165 -0.001329971244558692 -0.0032739974558353424 0.0026922659017145634 -0.002629307797178626 0.0013745520263910294 -0.004932371433824301 -0.0012935161357745528 0.0033485903404653072 -1.6848060477059335E-4 -0.004348307847976685 -0.002301435684785247 -5.140675348229706E-4 0.0012373022036626935 -0.002146471757441759 0.002437485381960869 -2.452214830555022E-4 0.0037314584478735924 0.003488654736429453 -6.272514001466334E-4 -9.405984892509878E-4 -0.0016913826111704111 -0.0038178020622581244 0.002496015978977084 -2.2538105258718133E-4 1.1132731742691249E-4 -1.9717066606972367E-4 -0.003353987354785204 -0.0011869337176904082 -0.002778671681880951 -0.0026932095643132925 0.0010602485854178667 -0.0034244318958371878 -0.002145753474906087 -0.0020616543479263783 0.002980954945087433 -5.02926530316472E-4 8.479813113808632E-4 0.0043077729642391205 0.002210285747423768 -0.0012131724506616592 0.0014664320042356849 -0.004502241499722004 -0.0013627988519147038 -0.006794379558414221 0.0047393180429935455 0.004003268200904131 -0.002015538979321718 0.0017654412658885121 -4.25953563535586E-4 -0.0028986409306526184 -8.654249832034111E-4 0.003948216326534748 -0.0013652335619553924 -0.0029058498330414295 0.0023877082858234644
old 0.009895321913063526 0.02677890658378601 0.03165758028626442 0.006340992171317339 -0.020897846668958664 -0.0033218194730579853 0.006269116885960102 -0.007395767606794834 -0.008551327511668205 -0.019762469455599785 -0.030035411939024925 0.005200484301894903 -0.031618572771549225 -0.0026225366163998842 -0.0199667289853096 -0.00619372446089983 0.0035914755426347256 0.00382090057246387 -0.028846940025687218 0.009793165139853954 -0.008678900077939034 0.012955560348927975 0.02596963569521904 -0.013196450658142567 0.008418798446655273 0.0069258189760148525 0.016814038157463074 0.0076552489772439 -0.018198726698756218 0.018152926117181778 0.009070152416825294 -0.01248696818947792 0.007949326187372208 -0.013711615465581417 -0.0037511868868023157 0.013610899448394775 -0.0077547249384224415 -0.008000688627362251 -0.06224798038601875 -0.02526722103357315 -0.0018208047840744257 -0.003511472837999463 -0.011588405817747116 0.01880802772939205 -0.003559984965249896 0.01967325434088707 -0.011818365193903446 -0.04318372905254364 -0.0062278201803565025 -0.00999448262155056 0.006389269605278969 0.02101796306669712 0.005136876832693815 0.008202213793992996 -0.01363711804151535 0.010816746391355991 0.014885518699884415 0.01858627237379551 -0.011045402847230434 -0.028031570836901665 0.008497333154082298 0.011323432438075542 -0.03266947716474533 0.053907014429569244 -0.005663308780640364 0.033083561807870865 0.015516086481511593 0.025116419419646263 -0.009632425382733345 -0.019178129732608795 -0.0017995849484577775 -0.019289778545498848 0.002901701722294092 0.00922630075365305 -0.020624199882149696 -0.00645331060513854 0.017635513097047806 0.01905396580696106 0.005511238239705563 -0.0035942953545600176 -0.026693806052207947 -0.01667732372879982 -0.015592487528920174 -0.001872003311291337 0.02241041511297226 -0.010142428800463676 -0.009180399589240551 0.0029370649717748165 0.010790699161589146 0.005064083728939295 0.006747777573764324 0.003552641486749053 -0.040801797062158585 0.044892311096191406 0.025482449680566788 0.012431216426193714 -0.024051299318671227 0.04275756701827049 0.0020506824366748333 0.003967273980379105 -0.03823808208107948 0.017784234136343002 0.013471866957843304 -0.003073690924793482 -0.05271139368414879 -0.024272100999951363 0.014939808286726475 -0.007189793512225151 -0.0522443912923336 0.009823611006140709 -0.01653093285858631 0.03155800700187683 0.02138017863035202 -0.01874939166009426 -0.03105323761701584 0.00214179209433496 -0.007557996083050966 -9.898373391479254E-4 0.010768549516797066 -0.017678754404187202 -0.0029621899593621492 -0.007834338583052158 -0.02905525267124176 -0.004212506115436554 -0.023184416815638542 0.026544220745563507 -0.0037613017484545708 -0.02788175828754902 -0.030183371156454086 0.00843135453760624 -0.0175557229667902 -9.400438866578043E-4 0.013778946362435818 0.018191976472735405 -0.031994469463825226 0.005722809582948685 -0.04454641789197922 -0.013936609029769897 -0.0453520193696022 0.017045332118868828 0.01776992343366146 -0.032798975706100464 0.013451606035232544 -0.03183688968420029 -0.05982312932610512 -0.004307208117097616 0.019904928281903267 0.0031328785698860884 0.008136657066643238 0.021789053454995155
want 0.004706856794655323 0.009697237983345985 0.013335438445210457 0.0011804938549175858 -0.0061834887601435184 -0.005528657231479883 0.0052391113713383675 5.407233838923275E-4 -0.001236731419339776 -0.00935850478708744 -0.006951978895813227 0.002280749147757888 -0.013169766403734684 -0.001105053466744721 -0.008427551947534084 -0.003274245886132121 -0.0019300522981211543 0.005338672548532486 -0.009920880198478699 0.004039781168103218 -0.006126582622528076 4.633596690837294E-4 0.00598057871684432 -0.0012664498062804341 0.00373781262896955 0.006188138388097286 0.00948857981711626 -0.001871598418802023 -0.008387217298150063 0.010740574449300766 0.004653407260775566 -0.002671332797035575 0.0017024367116391659 -0.006197494920343161 -0.0056978859938681126 0.005159290973097086 -0.004812284838408232 -7.767573115415871E-4 -0.02278076857328415 -0.014595226384699345 -0.0026630510110408068 -1.8436668324284256E-4 -0.0063941590487957 0.0058535318821668625 0.0019637118093669415 0.007950101047754288 -0.0044449009001255035 -0.018439779058098793 -7.941743242554367E-4 -0.007066813297569752 0.003401385620236397 0.008878135122358799 0.0013100964715704322 0.006229219492524862 -0.006941454019397497 0.001742045278660953 0.0026798939798027277 0.007802871055901051 -0.006014575716108084 -0.011540837585926056 0.005666350480169058 0.006795184221118689 -0.016671093180775642 0.02106844075024128 -0.0023805005475878716 0.015206202864646912 0.0068138777278363705 0.01046824548393488 -0.005773009732365608 -0.006331616081297398 -0.0033816464710980654 -0.005531861912459135 -6.186822429299355E-4 0.005329114384949207 -0.007707556243985891 -0.0028907291125506163 0.007226516027003527 0.0056856004521250725 0.0012799554970115423 -0.006065771449357271 -0.012083533219993114 -0.006751774810254574 -0.006167388055473566 -0.0023388294503092766 0.011321649886667728 -0.001638247980736196 -0.00470299506559968 -1.263260783161968E-4 0.0051519256085157394 0.0032447827979922295 0.0038374660070985556 -4.821546608582139E-4 -0.01716921664774418 0.019648903980851173 0.013189787976443768 0.0047957818023860455 -0.008209987543523312 0.018946724012494087 0.0023397342301905155 0.0013437573798000813 -0.013309343717992306 0.006004484836012125 0.007546038832515478 -0.002980377757921815 -0.020889338105916977 -0.012084770947694778 0.004110615234822035 -7.821568287909031E-4 -0.022620825096964836 0.008648354560136795 -0.004402506165206432 0.009951969608664513 0.010577336885035038 -0.010636373423039913 -0.01007881946861744 -0.00443507544696331 -0.0043610017746686935 -0.006168401800096035 0.0024542573373764753 -0.0075815762393176556 -3.6887830356135964E-4 -0.007450178265571594 -0.012478914111852646 -0.002829929580911994 -0.011271697469055653 0.013209528289735317 -0.0011247812071815133 -0.01001560315489769 -0.01497939508408308 0.003792094998061657 -0.00329664908349514 3.033842076547444E-4 0.004909084178507328 0.009789002127945423 -0.015024223364889622 0.0039866166189312935 -0.01858837530016899 -4.694004019256681E-6 -0.015074254013597965 0.005248566623777151 0.001359862624667585 -0.010717807337641716 -4.015588201582432E-4 -0.013798161409795284 -0.020893599838018417 -0.0057861520908772945 0.0052274418994784355 0.0033422023989260197 0.0028457953594624996 0.009594823233783245
outer 0.006593459751456976 0.01439976692199707 0.017552495002746582 5.342779331840575E-5 -0.010507816448807716 -8.969064801931381E-4 0.0015054666437208652 -0.0025481029879301786 -0.0033446846064180136 -0.014518877491354942 -0.008210066705942154 0.0019999188371002674 -0.01001986674964428 -0.0034258272498846054 -0.008225271478295326 -0.00811685435473919 9.355808142572641E-4 0.0023110592737793922 -0.011741706170141697 0.008219581097364426 -0.005727216601371765 0.004990864545106888 0.010558905079960823 -0.004197525791823864 6.627935217693448E-4 0.004129025619477034 0.012088593095541 0.004166054539382458 -0.008872468024492264 0.009495852515101433 0.002334736520424485 -0.004138519521802664 0.0045300922356545925 -0.007560256402939558 -0.006297719199210405 0.0049135517328977585 -0.004161274526268244 -0.0027630298864096403 -0.027066603302955627 -0.01452023908495903 9.023497113958001E-4 -4.8220172175206244E-4 -0.005768291652202606 0.011149073950946331 -5.805282853543758E-4 0.010237731039524078 -0.002365055028349161 -0.018893683329224586 -0.006749085150659084 -0.0083230622112751 0.00132373149972409 0.010403670370578766 0.004291759338229895 0.006336783990263939 -0.006636390462517738 0.005936810746788979 0.003110896795988083 0.008562742732465267 -0.008576259016990662 -0.012527109123766422 0.00679287314414978 0.006411217153072357 -0.019703108817338943 0.023636868223547935 0.001403959933668375 0.015303358435630798 0.009029587730765343 0.00695819454267621 -0.006451514083892107 -0.011481019668281078 7.912672590464354E-4 -0.012699334882199764 -6.32110342849046E-4 0.0035679929424077272 -0.011146278120577335 -0.003703867783769965 0.006640971638262272 0.008386672474443913 0.0013639116659760475 -0.006155067123472691 -0.011252038180828094 -0.0076618981547653675 -0.0055592549033463 0.0017729761311784387 0.005696000065654516 -0.002870920579880476 -0.006515495013445616 -1.049726561177522E-4 4.900455242022872E-4 -0.0029245654586702585 0.002184234093874693 9.559661702951416E-5 -0.017831169068813324 0.02241414599120617 0.011800034902989864 0.008165611885488033 -0.00995627697557211 0.019661065191030502 0.0016825295751914382 0.006491850595921278 -0.014287315309047699 0.010930562391877174 0.005411429330706596 -0.004116209223866463 -0.022349320352077484 -0.010872618295252323 0.009172658436000347 4.768821527250111E-4 -0.02538308873772621 0.005401694215834141 -0.0038918619975447655 0.014568907208740711 0.01190552581101656 -0.009259195998311043 -0.014112792909145355 -0.0027080941945314407 -0.005454448517411947 -0.0035277497954666615 0.005631191655993462 -0.010338203981518745 -0.001543928636237979 -0.009355293586850166 -0.009835870936512947 -0.006163203157484531 -0.007708500139415264 0.009631694294512272 -0.0033599163871258497 -0.012023204006254673 -0.010696351528167725 0.003740777960047126 -0.004651905503123999 0.0043040672317147255 0.0067644850350916386 0.010518085211515427 -0.014786855317652225 0.003696649568155408 -0.020142722874879837 -0.0032862317748367786 -0.018654173240065575 0.00882483460009098 0.006624753121286631 -0.008464244194328785 0.005803358741104603 -0.011798701249063015 -0.02491014450788498 -0.003962441813200712 0.004315976984798908 0.00654987758025527 0.002361465245485306 0.006509969010949135
* 0.001923015108332038 -0.001093853497877717 -0.002117452910169959 0.0025263973511755466 -0.003286014311015606 9.392765932716429E-4 0.003234051400795579 -0.0018204927910119295 0.0028952034190297127 -9.827124886214733E-4 0.0015852265059947968 0.0013747862540185452 -0.0022362363524734974 0.002249889774248004 -0.002128487452864647 -0.0020525010768324137 -0.0010284787276759744 -8.335236925631762E-4 0.0012616650201380253 0.0012296922504901886 -0.0012966434005647898 -9.822082938626409E-4 8.440049714408815E-4 -3.913873515557498E-4 -0.002940080827102065 0.003075740300118923 -9.050166700035334E-4 -0.003200931940227747 0.0018634168663993478 -1.3593673065770417E-4 -7.041136268526316E-4 3.8826424861326814E-4 -0.0016553187742829323 0.0013123404933139682 -5.965377786196768E-4 -0.0031108863186091185 -0.0010405665962025523 0.002281470689922571 -5.445639253593981E-4 -5.778397899121046E-4 0.0016117393970489502 0.002220092574134469 -0.0027032780926674604 -0.0014608724741265178 -0.0016060777707025409 0.0022505640517920256 0.0022160017397254705 8.148944471031427E-4 -0.0015771351754665375 5.644094781018794E-4 0.0024575162678956985 -0.0022756755352020264 -0.0013522199587896466 -0.0022095986641943455 0.0026883005630224943 -0.0031559448689222336 0.0014995074598118663 0.0025778210256248713 -0.0019233677303418517 0.0020132334902882576 -5.850422312505543E-4 -7.856627053115517E-5 0.0011501979315653443 -2.5658844970166683E-4 -0.002348860027268529 0.0028441636823117733 -0.0010056330356746912 0.0014285675715655088 -0.0013772451784461737 3.756225050892681E-4 -8.986564353108406E-4 0.0014791946159675717 0.002401710022240877 8.732648566365242E-4 0.0027523417957127094 0.002895309589803219 -0.0014922514092177153 0.0010665484005585313 -0.003045676276087761 -0.0021324593108147383 -0.0023535583168268204 -0.0018658709013834596 -0.00184620323125273 0.0020110055338591337 -7.327006314881146E-4 3.520254394970834E-4 -8.547157049179077E-4 0.002955365926027298 3.100780595559627E-4 -0.0016323794843629003 1.4562011347152293E-4 -0.0031327337492257357 0.0021988593507558107 -1.9867320952471346E-4 0.0032802678178995848 0.0031598678324371576 0.0020878196228295565 -3.258250071667135E-4 -0.002573261968791485 -1.96999913896434E-4 -0.002555841812863946 -0.003188822418451309 -7.934749010019004E-4 0.002288417425006628 -0.0031096271704882383 -8.392374002141878E-5 -8.754797745496035E-4 -0.0016865718644112349 -0.0030764155089855194 -0.0024414497893303633 -0.0014500695979222655 -0.0031621078960597515 5.860110395587981E-4 -0.002749519655480981 0.0028906925581395626 0.0025080435443669558 0.0017750835977494717 9.367350721731782E-4 0.0016773000825196505 2.3800451890565455E-4 0.0010430618422105908 -1.8844206351786852E-5 -0.0015425346791744232 0.0017907785950228572 -0.0014252978144213557 -0.0011599494609981775 0.001148649025708437 -0.002196288201957941 -0.0024847337044775486 -0.0025364940520375967 -0.0021528315264731646 0.0024493697565048933 9.13651820155792E-5 -0.0029248453211039305 -0.0018287523416802287 0.0016570830484852195 8.675745921209455E-4 0.0017842936795204878 -0.0029935864731669426 0.0032211586367338896 -5.248606248642318E-5 5.932970670983195E-4 -0.002365109510719776 8.142765145748854E-4 0.0027396762743592262 0.002534782513976097 0.0025617070496082306 -0.0015780571848154068 -0.0012721545062959194 0.0020960941910743713
them 0.009946852922439575 0.02773556485772133 0.03692286089062691 0.010168873704969883 -0.02901434898376465 -3.107308875769377E-4 0.008150988258421421 -0.009073611348867416 -0.006755773443728685 -0.025549234822392464 -0.02854202874004841 0.004329008981585503 -0.0375891849398613 -0.0036809633020311594 -0.019537443295121193 -0.006401505321264267 0.0035229669883847237 0.005737829953432083 -0.02933194674551487 0.015005250461399555 -0.01410955935716629 0.008467596024274826 0.02536110207438469 -0.01244099996984005 0.00896593276411295 0.0059387353248894215 0.023020675405859947 0.009928201325237751 -0.015817532315850258 0.020022792741656303 0.005309356842190027 -0.015514579601585865 0.011052594520151615 -0.0210522823035717 -0.004588058218359947 0.014350416138768196 -0.007653302047401667 -0.012840913608670235 -0.06878039985895157 -0.027120767161250114 8.01105226855725E-4 -0.0016498754266649485 -0.010225582867860794 0.02343526855111122 -0.004662004299461842 0.025838006287813187 -0.011760245077311993 -0.046666085720062256 -0.0071152509190142155 -0.009811896830797195 0.008978208526968956 0.02547072432935238 0.006952026393264532 0.014861637726426125 -0.00889914482831955 0.008285744115710258 0.011766711249947548 0.020079221576452255 -0.01125328429043293 -0.030918510630726814 0.013466928154230118 0.01580270752310753 -0.037610553205013275 0.059706058353185654 -0.006449057254940271 0.041565582156181335 0.022845031693577766 0.028376160189509392 -0.008230586536228657 -0.020126620307564735 -9.818196995183825E-4 -0.0175918135792017 0.0020773031283169985 0.0070238858461380005 -0.019274389371275902 -0.0033972528763115406 0.015039892867207527 0.018999163061380386 0.0035340215545147657 -0.003219092730432749 -0.03392542898654938 -0.018362700939178467 -0.014168926514685154 0.0010381914908066392 0.023098213598132133 -0.00996202602982521 -0.007894383743405342 0.007522242609411478 0.01396952010691166 0.004395871423184872 0.004316722508519888 0.00763975502923131 -0.04726286605000496 0.04830377921462059 0.026914013549685478 0.01196988020092249 -0.02230323664844036 0.050452861934900284 0.0033544376492500305 0.005106498021632433 -0.03883209079504013 0.02104084938764572 0.009363574907183647 -2.995123213622719E-4 -0.0572204515337944 -0.028736382722854614 0.016065659001469612 -0.008641512133181095 -0.058364782482385635 0.010384527035057545 -0.015879211947321892 0.033398136496543884 0.024783572182059288 -0.02337557263672352 -0.034701280295848846 -0.003811018541455269 -0.013059173710644245 -0.003107053693383932 0.01554855052381754 -0.0162552110850811 0.0011691898107528687 -0.014258520677685738 -0.03326598182320595 -0.005245732609182596 -0.025155238807201385 0.0283091738820076 -0.010025326162576675 -0.034566618502140045 -0.036068640649318695 0.003917759284377098 -0.01279211975634098 2.5004286726471037E-5 0.019366275519132614 0.0231703482568264 -0.03404147922992706 0.004254741594195366 -0.048694346100091934 -0.012885818257927895 -0.05110802501440048 0.02090884931385517 0.014245246537029743 -0.03106229566037655 0.014314195141196251 -0.03711849823594093 -0.06394578516483307 -0.007808844093233347 0.02091154456138611 0.0015734060434624553 0.007715141400694847 0.01904996857047081
then 7.939263596199453E-4 0.007603461854159832 0.014982813969254494 -1.7023395048454404E-4 -0.005266235210001469 0.0011056577786803246 0.0035668706987053156 -0.002996328752487898 -0.003068560501560569 -0.007084289565682411 -0.008808816783130169 0.002224759431555867 -0.010724359191954136 6.157622556202114E-5 -0.003038208931684494 -0.0014896856155246496 0.0013682900462299585 0.004266118165105581 -0.007781576830893755 0.005385980941355228 -0.0010391507530584931 0.005220838822424412 0.0060594342648983 -0.0019707591272890568 0.0021406812593340874 0.006396610289812088 0.0070681339129805565 0.002441273769363761 -0.007484222296625376 0.006110360845923424 -1.6233743735938333E-5 -0.004026471637189388 0.0019413998816162348 -0.0035782025661319494 -0.002267685951665044 6.809115875512362E-4 -6.337186205200851E-4 -9.47807333432138E-4 -0.016860518604516983 -0.00789415929466486 0.0018430334748700261 -0.0033861608244478703 -0.0019398920703679323 0.00769385788589716 -0.001725888578221202 0.005523975472897291 -0.004459400661289692 -0.01143106073141098 -0.002667523454874754 -0.004824231844395399 -8.266714285127819E-4 0.006653640419244766 0.00456796633079648 0.0057835811749100685 -9.046911145560443E-4 0.002841400448232889 0.004424394574016333 0.001938137924298644 -0.001942553324624896 -0.006451531313359737 0.0031655295751988888 0.0024406099691987038 -0.009502727538347244 0.014528105035424232 -0.0019421251490712166 0.009702526964247227 0.005536523647606373 0.008840598165988922 -0.006138938013464212 -0.005999802146106958 4.863616486545652E-4 -0.0032061345409601927 -1.7150216444861144E-4 8.898835221771151E-5 -0.004446821287274361 7.096020272001624E-4 0.001543645397759974 0.00681956484913826 0.004028883296996355 -0.004235736094415188 -0.0075981528498232365 -0.004207868594676256 -0.00224858894944191 -0.0025840839371085167 0.005874146707355976 -5.09721867274493E-4 -0.0012524729827418923 0.0019299143459647894 0.0016810378292575479 -0.001091737300157547 0.004242806229740381 0.001086920383386314 -0.010748334228992462 0.01439756527543068 0.010037059895694256 0.005929833278059959 -0.004617286380380392 0.013550762087106705 0.0014892375329509377 0.004027895629405975 -0.010786633007228374 0.004092068411409855 6.345551228150725E-4 0.0025230839382857084 -0.018485059961676598 -0.007340829353779554 0.0075784665532410145 1.2754906492773443E-4 -0.013825967907905579 0.006035475060343742 -0.002514025429263711 0.009814492426812649 0.003941449336707592 -0.005322274751961231 -0.008111405186355114 -0.0023166139144450426 -0.003151330165565014 -7.628534222021699E-4 0.006390520837157965 -0.003440497675910592 6.414548261091113E-4 -0.005406765267252922 -0.009607755579054356 -0.0010437448509037495 -0.006525091826915741 0.01021714136004448 -0.0013175400672480464 -0.009376955218613148 -0.007215376943349838 -3.0206525116227567E-4 -0.0014271334512159228 -0.0014259140007197857 0.007192283868789673 0.006373440381139517 -0.011859636753797531 2.8789296629838645E-4 -0.011235073208808899 -0.0013564972905442119 -0.012384573929011822 0.0058989496901631355 0.00414511002600193 -0.008944647386670113 0.0038683314342051744 -0.0068103838711977005 -0.01925293169915676 -0.0035318699665367603 0.001216004486195743 0.004577817395329475 0.0027831243351101875 0.006100817583501339
